410 100
日本 0.0004656245 0.0061795516 0.0013197815 0.004689403 0.001710989 0.006135476 -0.0011876071 0.0008801934 0.0028524525 -0.00426749 -0.0043033254 -0.0049076434 0.0009307625 0.0017244596 0.0007311656 -0.0011617613 -0.00039634 0.0014862535 0.0043806424 -0.0037902892 0.0019476335 -0.00032076312 -6.61417e-05 0.007691887 0.0042821732 -0.003807343 -0.0037311572 -0.002304673 -0.0022399828 -0.007388467 -0.004048813 -0.0068337247 -0.0034387447 0.004820307 -0.006189722 0.0019240418 -0.0036360736 -0.0047540604 -0.0047808867 -0.0021528688 0.004712122 0.004879155 0.007035763 0.005440515 0.0013107538 0.00035226156 0.00432288 0.0018611151 -0.003493017 0.002013092 -0.002257452 -0.0022439188 0.0057790186 -0.0031089468 0.0020439657 0.0029897718 -0.0014058257 0.00038164615 -0.011428829 -0.0032663648 -0.00069623755 -0.007268323 -0.013708372 0.0061321664 0.000937625 0.0058911303 -0.006519575 0.0067002554 -0.00083108386 -0.0017692198 -0.0070611816 0.0024943938 -0.004305111 0.0060727675 -0.004583078 0.0051629827 -0.0026734646 0.007721822 -0.008509019 -0.0060534654 -0.00279103 0.0026479436 0.0066147684 -0.0051547387 0.0006732399 0.0026549953 -0.0035277482 0.0017404542 -0.0046476205 0.004900958 0.0052200477 0.0010654709 0.001790447 0.0023964597 -0.003910024 0.00042056091 -0.006181673 0.008048713 -0.003008735 0.0014469333
北朝鮮 0.00033022984 -0.00033334634 0.004745719 -0.00029779595 0.00041748487 -0.0012048227 -2.9687387e-06 0.007240845 0.00074515806 -0.0046831314 -0.0047565983 -0.0022251555 0.004632516 0.0046405625 0.009023462 -0.0050791954 0.0044702613 0.0020536266 0.0071428204 -0.0022324238 0.0015543104 -0.0022805633 0.0015798886 0.008983296 0.0049641947 -0.006353266 0.0043019922 -0.0016392793 0.00036332838 -0.002598401 0.0021231016 -0.0017487325 -0.00016263052 0.008952997 -0.007042075 -0.0027024366 0.0021866423 -0.004335603 -0.0037866782 -0.01079619 0.00076450896 0.004252576 0.0036413257 0.0067651155 -0.0016293345 0.009265143 -0.0056642224 0.0008275773 0.0008461801 -0.00076498045 -0.0032375583 0.0061796745 -0.00093866314 -0.0039266464 0.0024199525 0.011468685 -0.0034428774 -0.0001662464 -0.0092779 -0.002837741 -0.00090407126 -0.0028693322 -0.0058494313 0.0070754746 0.0056828223 0.00095232704 -0.0016390919 0.0042061633 -0.0030973277 0.0047734925 -0.002749197 0.0041787224 0.0037711798 0.0010705779 0.0013520567 0.008645682 0.001913768 0.010403513 -0.008749414 -0.0030930808 -0.0010979903 -0.004948549 0.00778888 -0.00086538994 0.0033791866 -0.0004708828 0.004071103 0.0038602846 -0.002257304 0.007133856 0.005788988 0.004744916 0.0038684402 0.0019495816 0.0015342264 0.0027202566 -0.005948295 0.003230012 -0.00094599585 0.0062908563
中国 0.0073269946 0.005132353 -0.0033527974 -0.004220978 0.0066331695 -0.0015028699 -0.0044368855 0.0015321771 -0.00027904124 0.0017845491 0.0016181334 -0.0027224168 -0.0015905693 0.0026967095 0.005499373 -0.00296178 -0.0007993413 0.0031976677 0.008517638 -0.0008824979 0.00013357808 -0.003515287 0.0037088015 -0.0017264318 0.00088244496 -0.005153365 0.004746717 0.0033965476 0.0027919314 -0.0046919915 -0.0013438971 0.0019819003 -0.0029229878 0.0061718486 0.0025590078 -0.0040489403 -0.005320651 -0.0079058455 -0.0038153275 -0.003934297 -0.00017185205 0.0041700616 -0.00033924595 -0.00086907967 0.00022106376 0.0016402935 -0.003489085 -0.0015870386 -0.004965682 0.00036947674 -0.005848047 -0.00011350302 0.0042205034 0.0018718722 0.0036924225 0.009146368 -0.0076062577 -0.00494831 -0.008091483 -0.0030679132 0.00056541164 -0.0009161291 -0.0105208205 -0.00094416284 0.004588348 0.0037214048 0.0038951368 0.0003082011 -0.008702277 0.0006337799 -0.0065278877 0.0037015195 0.0017467021 0.005260991 0.0033582342 -0.0011480117 0.0030846756 0.0045134826 -0.0066862535 -0.0035289535 0.0019686895 -0.004258303 -0.0010037094 -0.0015782544 0.0063542705 -0.0030328874 0.0026956869 0.0045394823 0.0012829653 0.006719624 -0.0017564395 -0.0019628825 0.0055693923 0.0019537774 -0.0030817292 -0.0015792139 -0.0035271365 0.0069840974 0.0006932164 -0.0015617907
東京 0.0028552476 0.0017988714 0.0015045309 -0.0015419713 0.0023151846 -0.00055528927 -0.0036429563 0.0030880473 -0.0032033538 0.0024669927 0.0019694408 -0.0007553467 -0.001241577 0.004843933 0.0016298726 0.00044306755 0.0057723722 0.002582823 0.0041832807 0.0035120968 0.0040807817 0.0006683069 -0.0027543707 0.0018350907 0.0022255618 -0.0024049566 -2.1422768e-05 -0.0018797637 -0.0032878465 -0.0018387003 -0.004985925 -0.0045916205 -0.004296056 0.00043663225 0.0008907763 -0.0042848536 -0.0034287232 -0.008477712 0.0018660018 -0.009210362 0.004403208 -0.00092222303 0.009868288 0.0044644247 -0.004505571 0.008202902 0.0033725665 0.0016520661 0.0025040398 -0.0036912686 -0.0058457125 0.005481891 0.0056606536 -0.0024916364 -0.0025431842 0.008973715 -0.004937489 -0.0010336395 -0.011621025 0.00361902 0.003598271 -0.0005300683 -0.00940491 0.0040398627 0.00039569114 0.0028498063 -0.00430538 0.006388169 -0.0025440813 -0.0032316744 0.0012039549 0.004062742 0.002962691 0.0026301267 -0.0014268162 0.007584863 -0.0029197433 0.008653833 -0.001413725 -0.005785778 -0.0033828253 -0.00064570736 0.0045597292 -0.004706074 0.0066522327 0.0044635045 0.0010829675 -0.00091055426 -0.007991812 0.0067398474 0.007969206 0.005931394 -0.0029736734 -0.003030524 0.0049280077 0.0022047753 0.0030856093 0.006665662 0.0026408744 0.004034351
可能性 0.0053945533 0.006031913 0.006498009 0.003365787 0.0016210446 0.0074372767 -0.004854973 0.0042118896 -0.0035663089 -0.0011847637 -0.004539535 0.0015464311 0.0003283132 0.0049732556 0.008416873 0.0007134399 0.008431191 -0.0019091733 0.00526815 0.0010264927 -0.0016058394 -0.0023522235 -0.0035044374 0.0069087404 -0.0028016402 -0.008272375 -0.004418936 0.0024267205 0.0026336084 -0.0017317613 -0.005844147 -0.0069438526 -0.0019206738 0.0015928694 -0.002566285 0.0040015527 0.0008950835 -0.0029195377 -0.0014957055 -0.011243803 0.0025024062 0.005857472 0.0016786697 0.0051646917 -0.007784415 0.0100436155 0.002265728 0.0035579414 -0.003757447 0.00086533866 -0.008311166 -0.0021252462 0.008443232 -0.0035118249 -0.0003176408 0.004031856 -0.0012402023 -0.0034691247 -0.013892971 0.0024496354 -0.0014626693 -0.0063301697 -0.013591064 0.009876828 0.004249909 0.0012865822 -0.0010926357 -0.00069534575 -0.010619334 0.0010028164 -0.0072635696 0.0020214713 -0.0029646612 0.005858173 0.004768726 0.007087608 -0.0029829869 0.0073004067 -0.011140975 -0.007545521 -0.00051712536 -0.004128913 0.0084702885 -0.0076099243 0.0024868136 0.0048762127 0.0031937885 0.0006233961 -0.0071435566 0.0018891378 0.00938369 0.0047400477 0.003370749 -6.563759e-05 -0.001651741 0.0064227902 -0.001893944 0.00856836 -0.0043694526 0.0018917882
優勝 0.0047103697 0.006567139 0.0049496405 -0.0010711022 0.00549409 0.0054462543 -0.0024524126 0.0059225177 -0.0048142234 -0.001305088 0.0010219839 -0.0024886518 0.0025745998 -0.0014194162 -0.0008894781 0.0003858685 -0.00027605015 0.0027513653 0.009225407 0.0018248357 0.00074926665 0.0031653997 0.0055610053 0.0018441419 -0.0002044801 -0.0020823693 -0.005030202 -0.0010036656 0.003309359 -0.0005414164 -0.0016191665 0.0025781558 -0.007805797 0.0019238072 -0.0076641 0.004116363 -0.005132263 -0.00014905198 -0.00492017 -0.006639956 0.0043983795 0.004919213 0.005734652 -0.0001823396 -0.0010133613 0.008167594 0.0004671738 -0.0007450947 -0.004258258 -0.0014425897 -0.0031027321 -0.0007548424 0.0010633292 0.00062006986 0.004113152 0.008816313 -0.004673356 -0.0042763227 -0.0032825004 0.0036746177 0.005806897 -0.00689876 -0.011001313 0.0054772864 0.0039932667 0.000905846 -0.0028617536 0.007012058 -0.0021481996 0.0015411127 -0.0031096234 0.009351874 0.0038761343 0.0002418446 0.00064183836 0.0077369264 0.0020664702 0.006027819 -0.0005516948 -0.005165558 0.00038571822 -0.0004836175 0.008264224 -0.006620682 0.005759781 0.0037953395 -0.0011618971 0.0016316922 -4.413889e-05 0.0059910864 0.0009908759 -0.0005942259 0.00036487993 0.004335478 0.004271936 4.9509068e-05 -0.0046449522 0.003541483 -0.0051741884 -0.0009947808
説明 0.0072217984 -0.0014620613 -0.0008102573 -0.0023881367 0.0053451783 0.005833896 -0.0023549197 0.0011037055 -0.00358863 -0.005252215 -0.0030301518 0.0019312665 -0.0007265458 0.00039256096 0.0014598087 -0.00042984102 0.008070977 0.0057416707 0.004083884 0.004348631 0.0036585752 -0.0033195387 0.0005012132 0.0020349293 0.004601989 -0.0038711063 0.0020466556 -0.0029379874 -0.0018079247 -0.0070388387 -0.0029674296 0.0030891658 -0.0037183166 0.0017178386 -0.0051108864 0.0039306427 -0.0004884709 -0.0018106505 0.0005932512 -0.007610696 0.0018577947 -0.0019374209 0.004738387 0.004287331 0.0012997825 0.003069986 0.004576689 0.00341652 0.0028112186 -0.0042773234 -0.001977623 -0.0008893838 0.0046933657 -0.0013708253 0.0023260494 0.006472286 -0.0074502435 -0.0051918053 -0.0044876966 0.0030381968 0.005943591 -0.00024248198 -0.007517095 0.00062920427 0.0060378234 0.0057992833 -0.0016826601 -0.00014645222 -0.0005499191 -0.003077865 -0.0070964186 0.0072566015 -0.0023659787 0.0010134048 -0.004532038 -0.00074655726 0.002316276 0.008206569 -0.006360816 -0.0042642066 0.0038735564 -0.0037893613 0.0023282308 -0.0022432639 0.0041182907 0.0034096045 0.0021212653 0.002128314 0.0002809095 0.0010984277 -0.00038469228 0.0028373026 0.00041295707 -0.00199321 -0.0013938945 -0.0003023364 -0.0011812847 0.0027710237 0.000798881 0.006380754
米国 0.0057412116 -0.00024094588 0.0036146308 0.0050213737 -0.0017713223 0.0054061376 -0.0043319403 -0.002258049 -0.0011200358 -0.0042958683 -0.0014446427 0.0014722096 0.0051782355 0.004930813 0.002038082 0.00040956345 0.008698375 0.0023881716 0.0009960498 0.002590719 -0.0033270256 -0.0036510336 0.0037291097 0.0014968406 0.00071817194 -0.0045927707 -0.0018693537 0.0041331667 -0.0017702795 0.0007281057 -0.00011728684 -0.0031821288 -0.0069111492 0.00235426 -0.0056109824 -0.0014745941 -0.0054348907 0.0001755081 -0.0049240766 -0.00762919 0.0012701711 0.005949838 0.009473506 -0.00039889215 -0.0044516874 0.004299172 -0.0017557036 0.005676314 -0.002767445 -0.0016982 -0.0049600145 0.0052830786 0.007906322 -0.0032043282 0.003847122 0.005999378 -0.002934062 -0.00084403274 -0.008767962 -0.0019227584 -0.00067505543 -0.0020745702 -0.0117178 4.5549416e-05 0.008588724 0.006073879 0.0008455864 0.0016827908 -0.010049987 -0.0018802145 -0.0018456117 0.006815279 0.0027948206 0.0049058143 0.0031730921 0.005838969 0.0035773937 0.006539544 -0.0075662723 -0.0014013516 0.00471473 0.00018315045 0.005822174 -0.007106914 -0.0005820883 0.0034103354 -0.0016565798 -0.0010813747 -0.0006271258 -0.00031867353 0.0072755697 0.0024190205 0.002412258 0.001490604 -0.001313151 -0.00040053896 -0.00435648 0.0039399243 -0.0012151357 -0.00046812507
韓国 0.0018414758 0.0002656974 0.0020945913 0.000631178 -0.0005931549 0.004458977 0.00047918537 -0.0005086058 -0.0010257481 0.0014167426 -0.001851782 -0.00014221724 0.002491268 0.001003372 0.0037221066 0.0040282467 0.0050530313 0.005470295 0.0042582145 0.00066227233 0.0030652075 -0.0013605969 0.0006502486 0.0071385703 -0.0024701734 -0.0049382225 -0.0023283223 0.0035126705 0.003607198 -0.0063254344 -0.004830585 -0.0007770161 -0.0023358879 0.006855381 -0.0048458595 -0.0038453406 -0.0005181191 -0.0063472246 -0.005266968 -0.006510695 0.000393715 0.0074331416 0.0059087765 0.0056546475 -0.005899961 0.0049110125 0.0011919709 0.0022922263 -0.0021167004 0.00039594676 -0.006141572 0.004403487 -0.0024927265 -0.002118061 -0.0012384577 0.009802529 -0.0018064596 -0.002810869 -0.0013487791 0.0057819765 0.0014840019 -0.0010670089 -0.003781296 1.1342652e-05 0.00249362 0.0043882006 -0.0006307171 -0.0029263536 -0.0069244634 0.0031816184 -0.0011350582 0.0041632717 0.0009015218 0.0054786284 0.0040032705 0.00032290723 -0.0011731213 0.0025194562 -0.004671546 -0.0055407737 -0.0014836112 0.0016369529 0.0019861714 -0.008037539 0.002189504 0.004977002 -0.003681572 -0.000504281 -0.002654735 0.005577297 0.0025726778 0.0011689592 -0.0031435303 -0.0015102485 0.0044208593 0.0006768096 -0.005258402 0.0005969901 -0.005635654 0.0007685009
明らか 0.002440074 0.00201976 -0.000319056 -0.0034517397 0.0053573134 0.006097043 0.003427633 0.00025878113 0.0020932069 0.0023491406 -0.0061409296 0.0006339013 0.0016462622 0.0032336703 -0.00018905228 -0.00055896677 0.0045967596 -0.0026885294 0.00047730372 0.0040006298 -0.0018271339 0.005094008 0.000292767 0.0072690565 -0.00112377 0.0013788459 -0.0017927802 -1.5871545e-05 0.0035862026 -0.0053929975 -0.0028583955 -0.004914324 -0.006574456 0.001108631 -0.0070148893 -0.003080142 -0.00035121932 -0.0078037293 0.0033820923 -0.009495346 -0.00058121484 -0.002184393 0.006720509 0.0025334777 -0.0032353227 -0.0008273337 -0.00084513496 0.006169232 -0.002974642 -0.0026480795 -0.005386108 0.004854188 0.004646357 0.00033642552 -0.0010070938 0.0034823664 -0.007810165 0.0007927845 -0.009402413 0.004496428 0.0023105273 -0.007048807 -0.009682542 0.008687091 0.004869714 0.0058414578 0.0021001096 0.004887741 -0.008803638 -0.003616363 -0.004454665 0.008761109 -0.004054136 0.003242673 0.004650232 0.005841212 0.0042298087 0.007883249 -0.008618516 -0.00034591148 -0.0016545544 0.0030347405 0.00084968546 -0.008438232 0.0017812083 -0.00093200215 0.0049540806 0.0014963693 -0.0064618457 0.002369147 0.0027295728 0.0048176157 -0.0036308144 0.0029712107 -4.818814e-08 0.0033079328 -0.0057227104 0.008271558 0.0031373661 0.00463356
人気 0.0033873157 -0.000480125 0.0029240206 0.0023989126 -0.0001259618 0.0047550937 -0.00010653308 -0.00311213 -0.004762989 -0.0047070454 0.0031827844 0.0043051927 -0.002242285 0.003952137 -0.0021558637 -0.0010397715 0.00013286417 0.0048265387 0.004041271 0.0018193133 -0.0035304704 -0.00016917312 0.0028856015 0.0013802279 -0.0019766206 -0.004037514 0.0034006482 0.0027576543 0.0043320684 0.003046408 -0.00018911008 0.00088046736 0.0026766378 -0.0019789438 -0.002767895 -0.0026367551 -0.004079779 -0.0029488993 0.0017899863 0.00043598516 4.181075e-05 0.00022188034 0.0065596416 0.0053929724 -0.0005422897 -0.0013207829 -0.00016266557 0.0033919879 0.00062531146 0.0039555216 -0.0027234086 0.0011122989 0.0003308884 0.0003828127 -0.004530598 0.00036880982 -0.0018927985 -0.004612686 -0.0026185294 -0.004404057 -0.0013456867 -0.0032377641 -0.006063454 0.0031927119 0.0018397697 0.000818691 -0.0039184485 -0.0002872479 -0.005834886 -0.0049589374 0.0034168363 0.0019368334 -0.0021936132 0.0052791014 -0.0033500246 0.00092561543 0.0023502237 0.003143801 -0.0003222566 0.0002613425 -0.0044276034 -0.0014224509 0.0055478876 -0.0031121727 0.0007507621 -0.0017650177 0.005074833 -0.000106216474 -0.0054951333 -7.700559e-05 0.00031105254 0.004732008 -0.0045691878 0.002920713 0.0016907019 -0.0009196919 -0.0019581856 0.0059240367 -0.00095311634 0.0053521567
記者会見 0.003012644 0.0027286292 0.002547809 -0.0010579609 0.004336108 0.003427604 0.0019272079 0.00023645825 0.0037904822 -0.0039428384 -0.006119489 0.0002429826 -0.00040282498 -0.0018840445 -0.00037963383 -0.004512095 0.00051851117 0.0006611645 0.0042148246 -0.0038409734 0.0007584897 0.0013004725 0.004095376 0.007118855 -9.377031e-05 3.7141363e-05 -0.00240265 0.0011901167 -0.0037461151 -0.0051314 0.002653621 -0.0021441123 -0.0053046355 0.0008978134 -0.00039172877 -0.0011697087 -0.0044765137 -0.0073761125 0.00047158406 -0.0074437335 0.0041277683 -0.00065268384 0.0035192084 9.1344045e-05 0.0010850701 0.000458279 -0.0010873427 0.0018932676 0.0006136965 0.0035313535 -0.0008457997 -0.00077311014 0.0073640808 0.0014728466 0.0054782676 0.006152381 0.0012656488 -0.002040905 -0.008889669 -0.0006614163 -0.0022356606 0.00031805402 -0.010850951 0.0028232322 0.0009783928 0.0025626812 -0.0023522864 0.002042788 0.00075353024 -0.00021007234 -0.0032572076 0.0042867954 -0.0020621568 0.00036307448 0.0020241484 0.0073754713 -0.0026795752 0.0060952324 -0.008915037 -0.006405797 -0.0017701706 -0.0021882227 0.0027888473 -0.0046751755 0.006028383 0.0028162089 0.005651586 0.0031809432 -0.0006223167 0.006081274 0.0056529534 0.0032837607 -0.004216024 0.00029172451 0.0014669972 0.0019543204 0.003822559 0.002943765 0.0009237706 -0.0031472656
大阪 0.0022537503 0.0048226328 0.0026285418 0.004239784 0.0070120413 -1.0834752e-05 -0.001908173 0.0053247917 -0.0027740365 -0.0016737857 0.0014096987 0.0017146162 0.0052316412 0.0044968845 0.006542587 -0.0022465389 0.00037720616 -0.001008266 0.0043174736 0.0021396999 0.0033667495 0.0039738915 0.0022646212 0.007850604 0.004620085 0.0001930776 -0.0045920433 0.0069768704 -0.0001960495 -0.0033512888 -0.003356021 0.0019704609 -0.00088409835 0.0072383103 -0.0015106979 -0.00042620164 0.0013199355 -0.0029319518 0.0026217739 -0.00717036 0.00054127787 0.0055309557 0.00159852 0.0046169558 -0.0072825807 0.0059473533 0.002790581 0.0027655752 -0.0045555574 -0.0023519385 0.0011242264 -0.0002558076 0.008138959 -0.0021335576 -0.002670668 0.010888597 -0.006749981 -0.002888648 -0.010794967 -0.0032276893 0.006114657 0.00030418238 -0.007619881 -0.00064838346 -3.302605e-05 -0.0010217137 -0.0060133394 0.0066007082 -0.000101811514 0.0014763707 -0.004013409 0.009575542 -0.0009433992 0.004212306 -0.0039981036 0.007882952 -0.0015718533 0.005833512 -0.004106591 -1.3338411e-05 0.0044288654 -0.006365505 0.0052164835 -0.0070742676 0.0010957621 -0.0016928383 0.000934336 -0.0017889489 -0.006915861 0.0072929272 0.0050258986 0.005586698 -0.0019318209 -0.0022321278 0.0046428167 -0.0004895093 0.0014823872 0.0033413912 -0.0036813507 0.0061162743
イラン 0.0037948212 0.0067264875 0.0039582336 0.0025761856 -0.000119217686 0.0052122446 0.00033930468 0.0007022296 0.0015671815 0.002176996 -0.0010282652 0.0023319984 -0.0026655607 0.0053623132 0.0076688235 -0.0014951886 0.0014439726 0.004822473 0.0084087495 0.0018341035 0.0019853185 0.0033330347 0.0021650055 -0.0009052988 -0.0027078805 -0.008216568 0.0022138678 0.005421561 0.004422985 -0.0056025623 -0.006462991 -0.006834673 -0.0066596786 -0.00050093065 1.626096e-06 -0.003983625 0.0012162111 -0.005519753 -0.0023872566 -0.0048261555 0.0006022725 0.0066222837 0.0054244907 0.004088897 -0.0028958523 0.004605212 -0.0056456164 0.005825976 -0.000986136 0.000952642 -0.006755578 -3.4733755e-05 0.0045409678 -0.00041218556 -0.0010083707 0.012466774 -0.0013810648 0.0031833497 -0.003397579 0.0025671863 0.0035968958 -0.008020523 -0.004365713 0.0013778554 0.0051015546 0.0032657313 0.0032634854 0.003951399 -0.0061576655 0.0050243214 -0.0033733174 0.0056772977 -0.0048583173 0.0046853563 0.0012552324 0.001483398 0.003259643 0.0053774784 -9.578715e-05 -0.0003948066 0.0023225981 -0.0032133628 0.0012006353 -0.005934733 0.0074166283 -0.001915997 -0.00012267791 -0.0041483426 -0.007695964 0.0013448808 0.004207878 0.0003067054 0.0029603823 0.003206795 -0.002519473 0.0036103367 0.00011813287 0.011025021 -0.0023225741 0.005464132
無料 0.0014524523 0.0027175494 -0.00056786765 -0.0037064955 -0.0035481642 -0.0027866948 -0.0023611463 0.002986118 -0.0052229823 0.0007664478 0.0035806699 -0.0010319613 -0.0032274912 -0.00084104773 -0.0004860944 -0.0037854007 0.0014464055 0.002428221 0.00091057067 -0.0005713724 -0.0034381517 0.0037936703 0.0018489611 0.0008890615 0.0026722793 0.00010091938 -0.0034550366 0.00019158726 -0.0033279466 -0.0032215288 -0.0022822192 4.2828597e-05 -0.0019329803 0.0048162476 0.00066419103 -0.0014562714 -0.0053053703 0.0011792281 0.0013666926 0.0018482702 -0.00011410954 0.0011332057 0.0061763227 0.0003929319 0.0031681191 0.0027495539 0.0040653436 0.001563736 0.0037362229 -0.005624667 -0.00423019 0.0042564347 0.005580688 -0.0036338242 -0.0038893071 0.0076356446 -0.0041318447 0.0013020498 -0.0037170334 0.0032829742 -0.0032320605 0.0007269549 -0.0003728308 -0.0026626585 -0.0025985658 0.0014594326 0.0033783258 0.0024980684 -0.0050482657 0.0007363729 0.0017181215 0.005301725 -0.0015656139 0.002377858 0.00046398162 0.0011884104 0.0031498673 -0.0023819047 0.0010087773 0.00016459418 0.0037784027 -0.004751124 -0.0022207515 -0.0020888436 0.005229978 0.0015635293 -0.0019526468 0.0030680697 0.00024332358 0.006342825 -0.00041316135 0.0054393895 -0.0028096978 -0.0010446543 -0.0025856076 0.004511497 -0.0028529144 0.0014093289 -0.003605756 -0.0017645531
新年 0.0029661695 -0.0033106946 0.0036472701 0.004096607 0.0054861465 0.0061394307 0.0025713132 0.0021933373 8.1864e-05 0.0025769726 0.00067633635 0.003690659 -0.0011715234 -0.00071735686 0.006366203 9.805712e-05 0.0004810612 0.0043145865 -0.0009216381 -0.0024989739 -0.004164002 -0.0039598607 -0.0008674207 0.0038893388 -0.0025613245 0.0016682951 -0.00029103615 -0.00047032448 0.0028988705 -0.0056112646 0.0016673701 -0.0061586145 -0.0059232973 0.0030077435 -0.0015044688 0.0034346662 0.0001420377 -0.0071296794 -0.00064889574 -0.0061327997 -0.0033883601 -0.0005119213 0.000146908 -0.00228793 -0.006544494 0.0010514602 -0.0031409373 -0.0030202665 -0.006795433 -0.0057930304 -0.00065892556 0.000635655 0.00067677326 -0.003684528 0.0038870457 0.010669801 -0.0054349382 -0.0048426436 -0.0057386137 0.004787817 0.0003747458 -0.006987659 -0.011108704 0.008072545 0.00680041 -0.0024965424 -0.0023729322 0.0023624082 -0.0008862396 0.0027803604 -0.006217288 0.0041331244 0.0046647154 -0.00021202205 -0.0030483357 0.0013079076 0.004981118 0.006099338 -0.0058032004 -0.00033694017 0.0036331501 0.00023737064 -0.0015076641 -0.008455712 0.0066520353 -0.0019869513 0.0026346853 -0.0024754219 -0.0005249578 0.0068907575 0.0025397965 0.00023462193 0.0035985103 -0.0010565745 0.00063027424 0.0062034517 0.00030340764 0.00992149 -0.0061495965 -0.001131255
死亡 0.0045580766 0.0018907182 0.0035337633 0.0051304484 0.0023040036 0.006585314 -0.0037364857 0.00059610966 0.0015341268 -0.0053604166 -0.006100693 0.00084983575 -0.00128488 -0.000860112 0.00016988625 0.0030085803 0.0024558953 0.0057698223 0.005894498 0.0059602014 -0.0033727335 0.0022147684 0.0039250148 0.006235035 -0.0014326584 -0.0074898023 -0.0023506014 0.0063140285 0.0013254468 -0.0077947946 -0.0017533476 -0.0063754553 -0.0017353209 0.009354903 -0.0011971573 0.0030909374 -0.0040275273 -0.0067011006 -0.0034112849 -0.0053429846 0.0015372245 0.007164555 0.005047429 0.008587955 -0.0019854389 0.0061366204 0.0036722927 0.0065197186 -0.002433097 -0.0040909317 -0.0057626497 -0.002116558 0.00839249 -0.0028130228 0.0036911664 0.0064042164 -0.008184839 -0.0044632447 -0.009304915 -0.00085118203 0.0008253767 -0.0036341983 -0.009330023 0.0047556506 0.00548401 0.00030035566 0.0016752679 -0.0021509777 -0.0075213807 -0.0023282166 -0.0075168395 0.0075882277 0.0022959996 0.0026627309 -0.0007429271 0.005841986 0.0030939023 0.009455568 -0.00051820895 -0.0047904286 0.0034307598 -0.00054668344 0.006863108 -0.007831237 0.003193589 -0.0034264661 0.005016115 -0.0011373736 -0.010014509 0.008423529 0.00559126 0.0028317387 -0.0030165077 0.001313688 -0.00040476953 0.0016733807 -0.0060480065 0.0022238805 -0.0029048102 0.006518611
活動 0.006376311 -0.0020601808 0.0061050314 -0.0039041548 0.0004471159 0.0011172406 -0.004335292 -0.0027265954 0.0028511372 -0.0045908378 -0.005941956 -0.0007527251 -0.0033001157 0.004851384 0.007466493 0.0034491562 0.007804491 0.004861779 0.0062722377 -0.002814594 0.003950273 0.0006163816 0.0011595729 -0.00058647554 0.005411029 0.00031834395 0.004817051 -0.0030805515 -0.004673792 0.002027977 0.00025210678 -0.001831473 -0.0021708366 0.0014142648 -0.00095570093 0.0010348316 0.00049186876 -0.007861791 -0.0038501648 -0.008217154 0.0016972382 0.0069750035 -0.0007867504 -0.000485001 -0.001263945 0.0059849154 -0.00069503085 0.0030826628 -0.002335019 -0.0011689817 0.0032075695 0.000112248745 0.0073668375 -0.0012804477 0.0048613832 0.009336292 -0.0042921095 -0.0028017394 -0.0035392786 -0.0007242451 0.00254846 -0.0042688935 -0.008285396 0.0049651214 0.0058425595 0.0010038948 0.001466395 0.00024899418 -0.003588393 0.0024876965 0.0026110073 0.0027599377 -0.002179567 0.0014226357 -0.0026025511 0.007737838 0.0011992034 0.0026272857 0.00072571315 0.002574759 -0.0010578858 -0.0034816172 0.0019410417 -0.00010500848 -0.00028954793 -0.0043964223 0.0019242233 0.0030238896 -0.0020555737 0.0042513567 0.0012998574 0.0048796437 -0.0016088347 -0.0039684447 0.0022700063 -0.0017949599 -0.005025708 0.009211486 0.0002988824 0.0020265665
活躍 0.0033547769 0.0020721604 0.0038427522 0.0013215885 0.0055114417 -0.001461664 0.0025116731 0.0013419881 -0.003461814 -0.004250401 0.0031123166 0.0031795574 -0.0021090666 -0.00072840066 0.004025297 -0.0018644907 0.0071940273 0.00095950323 0.005886225 -0.0034131634 -0.001894449 0.0029692415 -0.00036873372 0.007562785 -0.0026212782 -0.0020011454 0.0029155952 0.0014826386 -0.0025181798 0.00029191712 0.0010207559 0.002182857 -0.0034407803 0.00046350074 -0.007093714 -0.0006124024 -0.0040638256 -0.002609392 -0.00293342 -0.0072265 -0.003812526 0.0066747195 0.008550301 -0.00040819382 -0.004713553 -0.001017736 0.0034270016 0.0012938126 -0.0024714933 5.624855e-05 -0.0059003024 0.0014365364 0.00638638 -0.0010928346 -0.0009003946 0.0022160592 -0.0060622036 -0.0026352769 -0.0103015695 -0.0021440778 -0.002734548 0.0013317065 -0.009917407 0.0015699042 0.0013958111 -0.000584174 -0.0051265396 0.0050857035 -0.0014620364 0.0017176578 0.002402198 -0.00052892754 0.0023433797 -0.0037064864 0.0028962381 0.0060155 0.0013259612 0.0082315495 -0.00846225 -0.0034208433 0.0032752447 -0.0016254621 -0.0016782067 -0.004251016 0.0061213127 0.005022143 0.0033443982 -0.0028680144 -0.002586651 0.001974472 0.0029035744 0.0049374416 0.0029647858 0.000844496 -0.0017476716 -0.0009953069 -0.0004744752 0.0016601023 0.00034377046 -0.0016353425
表明 -0.00091723545 0.0030873767 0.0061031687 -0.0036003564 -0.00035165975 -0.0002191084 -0.0065192697 0.00035065657 0.0018726975 -0.003974978 -0.006065788 -0.0018491728 -0.0031670178 0.0047802674 0.008493811 -0.0041871304 0.002286169 0.00047270997 0.005346109 0.0033802905 0.00037711542 0.0052200477 0.0034561781 0.007375083 0.0047970456 0.0013801355 0.0035753122 0.005825862 0.0013770999 -0.007118323 0.00084568566 -0.002044711 0.0011909194 0.0077077686 -0.00751272 0.0006081618 -0.002010157 -0.0014498137 -0.004730757 -0.0020799793 0.004757588 0.007724891 0.00015497296 -7.3708634e-07 -0.0044387225 0.0017092896 0.0030622135 -0.0017162419 -0.0023809557 0.0028287438 -0.0057030036 0.0064444146 0.0014126326 -0.0041390383 -0.0011276619 0.0068221344 0.00097245077 -0.006371973 -0.0035309081 0.0015612338 0.005114979 -0.0057428423 -0.012456863 0.0020153432 0.0019059001 0.00087378954 -0.003157801 -0.00062097324 -0.009242271 0.00085760414 0.0022542342 0.009421225 5.1606243e-05 0.0009792787 -0.0035238538 0.008955476 0.0018796505 0.0071355756 -0.004346722 -0.0030614734 0.0019171884 0.0013632814 0.008262538 -0.0007605081 0.004375285 0.0045795906 -0.0008207087 0.0047499826 -0.00022818802 -0.00025671572 0.0076840706 0.0051757684 -0.0030528698 -0.00031020754 -0.00042068146 0.005434423 -9.282147e-05 0.010757398 0.0028260262 0.00018522116
事件 6.686398e-05 0.0057045836 0.004485378 0.0050564525 0.0036029823 -0.0006624237 0.0015603823 -0.0023572387 -0.0041239765 -0.00076432875 0.00044924358 -0.00315615 0.0011427747 0.00063715567 0.003869769 -0.005085256 0.0037395742 -0.0040695607 0.008518765 0.0050716097 0.005602017 0.0014415622 0.003248756 -0.0016063437 -0.00039013269 -0.0055703805 -0.0033867508 -0.0023639642 0.00015566086 -0.0033642047 0.0014442554 -0.003605408 0.001460743 0.0064792708 -0.0048780497 -0.0013409436 0.0012460237 0.0014486698 -0.005486716 -0.0003040907 0.0024950458 0.00013928142 0.006331034 0.00445657 -0.006573862 0.0049106358 -0.00033329072 0.0030236607 -0.0021282441 0.0030078215 0.0019016218 0.006629938 0.005703684 -0.000905505 0.0015027684 0.0057166005 -0.0045332382 -0.0033534658 -0.005961857 -0.003273811 0.0017364062 -0.006598738 -0.007328528 0.0028109245 0.0019607386 -0.0022666927 0.0032119243 0.0010178144 -0.00858561 0.002464385 -0.005703759 0.0033601397 -0.002178692 -0.003407409 0.004096443 0.002969925 -0.000600053 0.007387253 -0.003976107 -0.0046643247 0.0037706064 -0.0027124293 -0.0019669682 -0.0024533141 0.005831983 0.00030318988 -0.003714634 -0.0033674422 -0.007368777 0.002232297 0.0060368767 -0.0020276797 0.0047097374 0.00075088604 0.0010321457 0.001023815 0.0012979914 0.0005585218 -0.0025802518 0.0029790886
ドナルド・トランプ 0.0076220785 0.0065061566 0.003039179 -0.001334878 0.0060404176 -0.002972552 -0.003367101 0.0052728145 0.0036015415 0.001251845 -0.0017170841 0.0017312295 0.002931422 0.0038026418 0.00095639296 -0.0048407638 0.0062334067 -0.0032256593 0.007109893 0.0030136744 0.0007143925 0.0026598002 0.00019706505 0.00026124495 -0.00018785422 -0.0036594314 0.0010366549 0.0007852007 0.0019284193 -0.00071996095 0.0034560054 -0.0013365368 -0.002965822 0.0058512487 -0.0076647527 -0.0031662455 -0.0051194606 -0.00087701826 -0.0073325154 -0.0048599145 -0.004217281 0.0009960447 0.0077985716 0.0010564842 -0.0032167314 0.0055474676 -0.0059244838 -0.0022525117 -0.00780991 0.0030423435 -0.0064299237 0.0020724388 0.0064944746 -0.006880516 -0.0008079854 0.010906563 -0.0013128549 -0.0045725796 -0.010043027 -0.0033601383 0.0020323386 -0.005819519 -0.011774841 0.00028701732 0.0012398894 -0.0011445191 0.00091395 0.0017211356 -0.0008498704 -0.002607802 -0.004549486 0.0039293515 -0.0050392826 0.002341356 -0.0009882828 0.004151947 0.004815764 0.0038928394 -0.010666994 -0.0071624992 -0.0028885193 -0.0070438767 0.00809162 -0.0012526865 -0.00070701475 -0.0045525567 0.0062874975 -0.0017005709 -0.0017439006 0.0039968994 0.0034007675 0.004283164 -0.0013153503 4.9633118e-06 0.0030175992 0.0065254048 -0.001921897 0.012117163 0.0013155403 0.0011411635
関係者 -0.0014731549 0.0051967776 0.004726751 -0.002867535 0.0061151357 -0.0031188966 -4.099151e-06 0.0027234287 0.00079592137 -0.0040599997 -0.0021768596 -0.0022849112 0.0021195726 0.006955781 0.0020701352 -0.0011090322 0.006592603 0.0041220984 0.0043876395 -0.0039118873 -0.0008690993 -0.0009892815 -0.00019745909 0.0031228384 0.0047962056 0.0014179234 -0.002250109 0.0007707591 0.0018641033 -0.0065279803 -0.0035298201 -0.0013343276 0.0016980196 0.006637849 -0.007118308 -0.0017047544 -0.00040186322 -0.0072105466 0.003161574 -0.006020191 0.0017852938 -0.0017125233 0.007991054 0.0053645615 0.0017700574 0.0055193906 0.0016811396 0.003873788 -0.0015218508 -0.00542335 -0.00084832025 0.0062650237 -0.0023798808 0.0010140461 -0.0019876566 0.005362311 -0.00483745 -0.00014222381 -0.009854083 -0.004072771 0.00052586757 -0.004194336 -0.010016037 0.006528914 0.0065364027 0.0036743977 0.0035724062 -0.0020451644 -0.0030153745 -0.0023931034 -0.005949028 0.001410103 -2.4446874e-05 0.005121249 0.00015173212 0.0046584005 0.0025798741 0.004153929 -0.004099883 0.001427836 -0.002541264 -0.005168049 0.0028448699 -0.0018369141 -0.0019447362 0.0033832728 0.0015838173 -0.003879464 -0.00234763 0.0021680393 -0.00022367452 0.006313225 0.0038767813 0.0028115963 0.0038511879 -0.0012166745 0.002143533 0.00912546 2.4116778e-05 0.0060249884
上昇 0.0037833094 0.0039402572 0.0067941616 0.00011807559 -0.0020812694 0.00623327 -0.0051662507 0.004580362 -0.00088516297 -0.005150503 0.003254634 0.0032188827 0.0029660524 0.00057743175 0.003600043 0.0014992566 0.0020728228 0.0044338317 0.0032099148 -0.0025231633 -0.0007085943 0.0048090513 0.0044188974 0.0039939303 0.0015571556 -0.0033508823 -9.552119e-08 0.0023418535 0.0017117922 -0.0058602877 -0.004614733 0.000981279 -0.004450567 0.00055818324 -0.007526765 0.002598734 -0.002200173 -0.0055982494 -0.003509179 -0.0066018077 0.00040565606 0.005169292 -0.0010221496 0.0061755884 -0.00448299 -0.0011540123 -0.0053262985 0.00085277844 -0.0003239875 -0.0028308628 -0.0035512133 0.0036175016 0.005667457 -0.00022919787 -0.003178994 0.0024696516 -0.00014378279 -0.0053220615 -0.0069048777 6.862144e-05 -0.0040011336 -0.006845112 -0.0069839736 0.0058206897 -0.00024222856 0.0017053634 -0.0024193667 -0.0009571086 -0.002580367 -0.00034004796 -0.006915147 0.0037389416 -0.002207005 -0.0028224976 -0.00091317284 0.0020163204 0.0040313606 0.007562111 0.00071989174 -0.0034682143 0.0055040135 -0.00091771554 0.006089643 -0.0025957683 -0.0025062903 -0.0022713465 0.004844867 0.00024600435 -0.0041085645 -0.0023628343 0.00489391 -3.4790788e-05 -0.0023575793 0.0037895518 0.0034013574 0.0003144775 -0.005354955 0.0050813607 0.0027405436 0.0058182436
新幹線 0.0044944608 -0.0007552155 -0.0025984521 -0.0040221885 0.005562732 0.0028947075 -0.0041368157 -0.0031486377 -0.0032771658 -0.0009884472 -0.0029428133 -0.0053897128 0.004043077 -0.0014852613 0.008268651 0.0019133743 0.007346295 0.00250885 0.0030129864 8.261394e-05 0.0042847916 -0.0037507862 -0.00029017232 0.0065631983 0.00012461194 -0.0022790055 -0.004430837 -0.0019261349 0.0035198722 -0.0017131284 0.004385308 0.0017325932 -0.0035698141 3.4442375e-05 -0.0070083276 0.0027719298 -0.002345441 -0.004338409 -0.0031397024 -0.007573395 -0.0014183043 0.0016967879 -0.0015108107 0.0038458402 0.00054341415 0.00764611 0.0048728697 0.0053150076 -0.0021119907 0.0026932715 0.0012400995 0.0030727684 0.0005628422 -0.006171601 0.0021144892 0.009760321 -0.0044450294 0.0012378937 -0.009638182 0.0028948942 0.0040831417 -0.0034368264 -0.001963495 -0.000993524 0.003231795 0.0036203472 0.00034056942 0.0014694257 -0.0038175427 -0.0020700477 -0.00031772532 0.0078048855 -0.0049944893 0.0044992235 0.0001582729 0.0006371035 0.001651003 -1.6147183e-05 -0.0027095776 0.0029983 0.0037973 0.001193609 0.006489475 -0.007585795 0.0018224989 -0.0014285193 0.004276181 0.00084989646 -0.002887947 0.0013900886 0.006876259 0.0019946771 0.002205391 -0.0019612734 -0.0005396965 -0.0006129611 -0.00064407726 0.0073379725 -0.0029781088 -0.0013625099
患者 0.0073692766 0.0058104857 0.00046048063 -0.004373846 -0.001641164 0.00024511747 -0.005876979 -0.0007140493 0.003169393 -0.0060122847 -0.005119955 0.0015271275 0.004593555 -0.0014456735 0.0038392982 0.0033014724 -0.00013354166 -0.00095136085 0.008850152 0.0047816243 0.0025689104 -0.0032585375 -0.0025973108 0.0062620235 0.0038680357 -0.0012333564 -0.0009932338 0.00036285334 0.0042283344 -0.007488501 0.00097103906 -0.00064157107 0.00083581446 0.0071650245 -0.008688998 -0.002734034 -0.006198003 -0.0016631146 0.0021118836 -0.0065198373 0.0061895335 -0.0011741356 0.005433032 0.007101156 -0.0060339374 0.01000391 -0.0017712296 -0.0028091853 0.0017191019 -0.00028801808 -0.008332617 0.0002464707 0.004200122 -0.0063926843 0.00304613 0.009913578 -0.0049886773 -0.00060886086 -0.009859026 -0.004192021 0.0065860823 -0.007232589 -0.012350986 0.004492283 0.0050237086 -0.002511995 -0.0049288664 0.0008515547 -0.0014334017 0.000778986 -0.00022451131 0.0072758915 -0.001468697 0.0054544695 0.0012960413 0.008242094 0.0015855627 0.001831017 -0.0046994523 -0.008135552 0.006166901 -0.005241921 0.002121652 -0.007951145 0.0017505693 0.0017996382 0.0039414684 -0.00029691213 -0.0024904641 0.0019927921 3.518927e-05 -0.0018694493 0.0062897755 0.00042293454 0.0035216499 0.004121208 -0.0022203089 0.011596922 -0.004433277 -0.0036868164
羽生 0.008808006 -0.003038588 0.0055054314 -0.00027803436 -0.00027473262 0.006644402 0.0019691845 0.005815284 -0.0001882933 0.0031182154 -0.0020519323 -0.002342649 0.0024717716 0.0005952659 -0.00024763055 -0.0044195517 -0.00077451597 0.0044247974 0.0019149467 0.0015318217 0.0016963823 0.002663338 0.0033913006 -0.0006267833 -0.00372636 -0.008187382 -0.0044875694 -0.0024200699 0.0013791578 -0.00080961676 -0.005425438 0.0020414705 -0.0060444586 0.0038030199 -0.00046525698 0.0040542586 -0.0022657034 4.9746865e-05 -0.0011394148 -0.0030642652 -0.0023779247 0.0075432085 0.0049501657 0.0011162692 -0.008450774 0.005173827 -0.0011696368 -0.0017404784 0.0013461058 0.00012316505 -0.0056056017 -0.001716841 -0.0012971743 -0.0077500795 -0.004233393 0.0030402783 -0.0028089231 -0.0012408947 -0.010382952 0.0053644064 -0.003867868 -0.0049821995 -0.013025543 0.0022028498 0.0048947157 0.0050256536 -0.00442689 -0.0018317831 -0.0016490621 0.0011109599 -0.0053081233 0.005360909 0.00056228985 8.488546e-05 -0.00092542026 0.00075260765 0.0030033414 0.004993654 -0.007979721 0.0013862207 -0.00058286206 0.001967802 0.0065704496 -0.009163763 0.0070474073 0.0035731415 0.0020027403 0.002704792 -0.008525879 0.0066549717 0.0020545707 0.0062325676 -0.0030335798 -0.002137912 0.00087409175 -0.0014466596 0.0021363741 0.00611422 -0.0069390773 -0.00094547856
ＮＨＫ 0.006431329 0.0002327291 0.0002205706 0.0034893784 0.006499392 -0.0036296288 0.003541441 0.003776341 0.0012263672 -0.0049152733 -0.005437241 -0.004682802 -0.0039261733 -0.0013589044 0.0012019183 -0.0023299723 0.0070413253 -0.0039584152 0.0047555454 -0.0023460854 -0.0050668786 0.0032496382 8.7191765e-05 0.0007358535 -0.0046950164 -0.006892103 0.0020477728 0.006442146 -0.0048708925 0.0018561879 -0.0038344814 -0.0037579217 -0.0041164216 0.0006469324 -0.0024582227 0.001241792 -0.0051152515 -0.0010584294 0.003716752 -0.0023201639 0.0005309401 0.00024796685 0.002822624 0.0054314523 -0.0029136918 0.00018901179 -0.0023142677 -3.3408733e-06 -0.00017631552 -0.0061367056 0.0025995066 0.0032467195 0.0060879816 -0.0015956182 0.00019086081 0.001920821 -0.00502732 -0.0052622245 -0.009923027 0.0017537911 0.003554957 0.00083439145 -0.00074960856 0.0073546525 -0.0018810923 0.0032171535 -0.001933832 -0.0027801502 -0.0060680937 0.004141745 -0.004823874 0.00697552 0.0040809233 0.0001471308 0.00061549677 0.0034373614 0.003059397 0.007258385 -0.005417108 0.0017757938 0.0014946021 0.004014998 0.0022626058 -0.004709779 0.0023417522 0.005494563 0.0045566885 0.003860221 0.0004815781 0.0047428627 0.0069194143 -0.00025654468 0.0026775207 0.0026386408 -0.0040229247 0.00538449 0.003512269 0.0047011557 0.0014953675 0.0030082148
東京都内 0.006383898 -7.63536e-05 -4.6193873e-06 -0.00081842614 0.0050438456 -0.003315307 0.003856858 0.005078 -0.0034731003 -0.0026095721 0.00010931699 0.004724299 0.004669247 0.00552227 0.0026084378 0.0019479614 0.006802359 -0.0010089972 0.005194119 -0.00050109345 0.0006011764 -0.0026177743 0.00018245206 -0.0025608211 -0.0024976423 -0.005092424 0.00030555233 0.004687162 0.00071235426 -0.000720866 0.0037398427 0.0011453723 -0.0016040774 0.005071496 0.0034687794 -0.0045103086 -0.001971778 -0.0017397808 -0.0030596042 0.0013973356 -0.0026724453 -0.003307795 0.0012704652 0.002246516 0.0003884587 0.0038113156 -0.0046134666 -0.0022749945 0.003080427 0.004108731 -0.0005530282 -0.002860326 -0.0032564385 0.0036645806 0.0045180977 0.0042315032 -0.0020351165 0.0038873043 -0.008110233 -0.0005907546 0.0028260015 -0.00015455266 -0.0031643189 0.007001808 -0.003522493 0.005529233 -0.0010963461 -0.00069740246 -0.005382263 0.004085746 -0.0034910385 -0.0010558825 0.0028703874 -0.0019926592 -0.0013165697 0.0028249547 0.0014577504 0.0062166634 -0.004941307 0.0018592008 0.002184871 0.0016679819 -0.0016246991 -0.0053022993 0.0037462998 0.00022945709 -0.0032270253 0.002004069 0.0026008673 0.0016153123 0.0050121904 -0.0006102167 0.0042298986 -0.0048116096 0.004743134 0.0041599413 0.00042425207 -0.00034633165 0.0042625456 -0.0017053757
ニューヨーク 0.006417444 0.0013899468 -0.0018775478 0.0053860387 0.0056785154 0.006138504 -0.0029381982 0.0039056463 0.002108101 -0.0020375699 -0.0054085446 -0.0024246196 -0.0016606058 0.0038546058 0.0004474249 -0.0047309813 0.00643397 0.004900443 0.002282641 0.0035966837 0.00015563908 0.003637888 0.0045827697 0.0015448504 0.0036241477 -0.0007214923 -0.0016395595 -0.0031808864 -0.00047411653 0.0025162874 -0.0004829564 0.0026677975 -0.0028615077 0.0073372237 0.0023174796 0.0022544803 0.0040449873 -0.0028517032 -0.003488588 -0.0064191306 0.0015847076 0.0031083357 0.0016040127 -0.0017625226 -0.0059777093 0.006839978 -0.0004878016 -0.000289843 -0.0045711566 -8.762825e-05 0.0022371355 -0.00036761828 -0.0007205726 -0.006831234 0.00162084 0.008282977 -0.001734395 -0.001422799 -0.009283777 0.00016125175 0.0019317535 -0.005686708 -0.006034254 0.0033867655 -0.002473214 -0.0032254634 -0.0004023604 0.0005954174 -0.005090787 -0.0021009524 0.00097320566 0.0017293177 0.0014937668 -0.0037481135 0.0051185023 0.003358731 -0.0031570862 0.0038147015 -0.008059416 0.0030150346 -0.002539177 -0.000945033 0.006079724 -0.007685437 0.0003142108 0.0007742126 0.0050047887 -0.004459941 0.0018294662 -0.0028777274 0.001286783 -0.0016933624 0.0034397617 0.0023425967 -0.0015761568 0.005110886 -0.002377701 0.008785825 -0.0019427432 -0.0037244614
新垣里沙 0.0030152597 -0.0048495964 -0.00044124795 0.004631165 -0.0049559507 -3.820118e-05 0.002522186 -0.0031859195 -0.006146382 -0.00052366866 0.00048361302 -0.0023849343 0.0023050453 0.002056819 0.0060441694 0.00062778813 0.005352367 -0.0047474317 -0.0010718724 0.005645374 -0.0021695022 -0.0012456808 0.0054507963 0.002461366 0.0051846816 0.0033538097 -0.004701354 0.005544226 -0.0036019234 -0.0057651005 -0.004592403 -0.0066907248 -0.0019244907 -0.002239389 -0.0051151533 -0.0005498667 -0.002322502 0.0025506408 0.004716966 0.0010780077 -0.004014455 0.006393318 -0.0003245629 -0.001172539 -0.0013526428 -0.0024933412 -0.0006505306 0.0046778256 -0.0050314018 -0.004110533 0.0027447569 0.0071103475 0.0011123522 -0.0007301743 -0.0028117928 -0.0018370302 0.0037436995 2.2481534e-05 0.0007846391 -0.0035101243 -0.0031294897 0.00034075056 -0.0013942183 0.0021485921 0.002186964 -0.003070001 -0.0027837607 0.0051404163 -0.0024394512 0.002917721 0.0029397462 0.005966428 0.0047888216 0.003277547 -0.004537317 0.00084501866 0.0041957353 0.00014074985 -0.0014885586 0.0015710947 -0.0020858345 0.0027260962 -0.0020254166 -0.0013357734 -0.00050991465 -0.0046567777 -0.0046515684 0.0017851734 0.0025409835 0.0010299217 -0.0016003443 -0.0036007469 0.000929943 -0.0031055836 -0.0018287937 -0.00034727593 -0.000914117 0.0073331813 -0.0031004597 0.0009799041
担当者 0.0020824135 -0.0011680287 3.533977e-05 0.00033051704 0.0014880634 0.005411615 0.0006457269 0.0035023415 0.0013612803 -0.0037951989 0.0023841083 -0.0029903182 -0.0036225952 0.0015563242 0.00432019 0.0009559426 0.0024664097 -0.0001820885 -0.00026161558 -0.0030300021 -0.0036362747 0.0043022106 0.0041339705 0.001246784 -0.0033982566 -0.00029606733 0.0012216583 -0.001721043 0.0023592147 -0.0039533963 0.00053916615 -0.005485034 -0.0050847176 0.0066006766 -0.0023011381 0.0020616672 0.0024202694 -0.0010354865 -0.0037037744 -0.006182489 0.000990614 0.0051083704 0.0056818044 0.0057326746 -0.006041087 0.0040671155 -0.0014240688 -0.0005695562 0.0018032928 -0.001848002 0.0025411027 -0.001183926 0.0046584923 0.0028821845 0.001828843 0.0050224224 -0.006628644 0.0011264257 -0.008786536 -0.0045227436 0.0046849735 -0.00013454072 -0.0065508946 0.0006105908 0.0063128364 0.005978699 -0.0047738147 0.0038842142 -0.0056729615 0.00204764 -0.0011701587 0.004210828 -0.002244029 -0.00080916466 0.001593059 -0.0022956748 0.0016450911 0.001692118 -0.006085744 -0.0031350069 0.003458962 0.0013720073 -0.0018285102 -0.00071373687 0.0042303195 -0.0020707531 -0.00072538166 0.0025963786 -0.006674228 -0.00202876 -0.0017786778 0.0040334114 -0.0012924859 0.0022188998 0.004947007 0.0032779265 0.0010738245 0.0020079918 -0.0021911205 0.004649506
小谷嘉一 0.0028345087 -0.003350305 0.00061168167 0.0017729317 -0.0021323715 0.002721408 -0.00024230963 0.0060287 0.0023875071 -0.00023404609 -0.006302984 0.0042357277 0.0017645065 0.005090436 0.0019075047 0.0031969454 -0.0013079578 0.0008798642 0.005261278 0.0049734735 0.005362015 0.005673583 0.004428861 0.005931134 -0.0019887665 -0.0052352054 -0.0024630784 0.0050506415 0.004460369 0.00033317605 -0.0068466016 -0.007099919 0.0009569251 -0.0005423639 0.003048726 -0.0026180486 -0.0020106677 0.0003321904 0.00019505608 -0.007239126 -0.0019599956 0.0023629724 -0.0012678325 0.0010300803 -0.0040979856 0.0010507725 -0.0041911313 0.0058970745 -0.00049566035 0.0006545601 0.0028721814 0.0044684503 0.0025738946 0.0010931278 0.0014871025 0.007892062 0.0020178596 0.002150464 -0.0006611942 -0.0016145968 0.0017039324 -0.005249231 -0.008165732 0.003073274 6.9978065e-05 0.0037090706 0.0046101226 -0.00057575334 -0.0026437268 -0.0034849523 -0.0034502342 0.0040518576 0.0022615793 -0.000739211 0.0012027273 0.0071329963 -0.0006098366 0.006187289 0.002849369 0.0032668153 3.7458536e-05 -0.003187142 0.0043505225 -0.002286451 0.0019706057 -0.001653997 0.00513153 0.0010052538 -0.0013596569 -0.00035483262 0.0068810694 -0.001408685 0.003779018 -0.0019884033 -0.001080304 0.0011520465 -0.0040909047 0.0055527375 -0.0011786916 -0.0016654618
前年比 0.0014140487 0.003698681 0.006441053 0.0022602302 0.005775803 0.003006687 -0.005828031 0.0015015132 -0.00056604354 0.0021636777 -0.0039659096 0.001361875 0.0014332322 0.006574509 6.658597e-05 0.0034284585 -0.0010160126 0.0040432145 0.004141029 -0.0033309897 -0.003943298 0.0049981643 0.0052187527 0.0032345299 -0.0020244748 -0.005422884 -0.00029099314 0.004922488 0.0032064237 -0.005733976 0.0026855855 0.0013027051 -0.0071971244 0.0027761424 -0.004477754 0.005314533 -0.00500268 -0.0005031191 0.002833736 -0.0035651186 -0.00044658393 0.0064570014 0.005867932 0.0008961894 -0.004226807 0.0044769193 -0.003995706 0.00031800228 -0.0046410398 -0.0014450132 0.00078197115 -0.0012431525 0.004752296 -0.0020589998 0.0007514963 -0.00045615694 0.0014265787 -0.00035123917 -0.008568804 -0.003872192 0.002842534 0.001855313 -0.0039900923 -0.0011225765 -0.0021164091 0.0059743305 -0.0035290183 0.0021793346 -0.0017873436 -0.003439548 -0.0022324282 0.0021570092 0.0033288922 0.0016283242 0.0029830816 0.0019552154 -0.0022757398 0.00034420477 -0.0025304107 0.0024022346 0.0008129234 0.0037084392 0.007317774 -0.0005908179 0.0012870143 -0.002304033 -0.002798387 -0.00039222973 -0.005649333 0.004375501 0.005273396 0.0038958057 -0.0021684093 -0.0017768524 0.0016151997 0.0025791002 -0.0016975452 0.004563055 -0.0011310455 0.004669895
高校選手権 -0.0008050319 0.0016710052 0.0057038194 0.0033022666 -0.004201495 8.320101e-05 -0.0042977445 -0.0023801704 -0.0014534863 -0.004353773 0.003951577 0.0024364116 0.0051394734 -0.002974325 -0.00018660977 -0.0016053128 0.006253652 0.0040544216 0.005181551 0.00042094235 0.0033499198 -0.0031244596 -0.00079026964 0.005440568 -0.0042276955 0.0036788885 0.0008737533 0.001969987 -0.0010292078 0.0022801394 -0.0020326423 -0.003975016 -0.002192885 0.005621642 0.0030234803 0.0016757504 -0.0012513832 -0.0006523729 0.0022226127 -0.001308371 0.0030090553 0.004643352 0.0052588717 0.00069669675 -0.001888356 0.00070865155 -0.002922529 0.0031422747 -0.00041414693 0.0011144547 -0.0057993135 0.0053653917 -0.00058461423 -0.00025587642 0.00066251744 -0.0006307626 -0.00494092 -0.003023378 -0.0054058745 0.005496976 -0.003408835 -0.005285963 -0.0028054754 0.00012580826 0.00621327 -0.004264295 0.0037483084 -0.0015499705 -0.006024864 -0.004791692 0.0031908748 0.004708241 0.0016994802 0.002695349 -0.00472505 0.0037794218 -0.0041765557 0.0039422717 -0.0022161023 -0.0023859874 -0.0025226616 0.004423721 0.0029965157 -0.0027184507 0.005745016 0.00081402384 0.0006419618 -0.004324733 -0.0040456667 0.006598754 0.0025523948 0.006135862 -0.0041209976 -0.0018559712 0.0053960164 0.0023410243 0.0010604229 0.0046192873 0.004385223 0.0005835183
佐々木 0.008076176 0.0018055355 0.0063619027 0.0017940853 0.0055829976 0.0020653019 0.0026178823 0.004569884 -0.00420036 0.0022381179 0.003787059 0.0017476561 0.0020234238 0.0013108914 0.008569073 -0.0027242536 0.0047365953 0.003936489 0.00952593 0.005298714 -0.0015600106 5.869344e-05 -0.003932411 0.0079393275 0.0016765271 -0.0019485995 0.0037924044 0.00048663828 -0.0034062583 -0.0065013673 -0.0008689169 0.0018043485 -0.0051351767 -0.00025667372 -0.0037737195 0.00090865686 0.0015064384 -0.0058750664 -0.0060587325 -0.0065342975 0.005618285 5.5915778e-05 -2.1283922e-06 0.0058921594 0.00042625293 0.008140924 -0.0020911065 -0.00035740586 -0.0062826113 0.0005573104 -0.006650878 -0.0009939006 0.0050408565 -0.002780365 0.0005263206 0.007963745 -0.007438832 -0.00024366174 -0.0038236328 -0.003604817 0.004643576 -6.9283065e-05 -0.004569173 0.008034637 0.0066474737 0.0065262024 -0.0045173937 0.0060533434 -0.0022808725 -0.00355071 -0.0063595423 0.0043785796 0.0003168367 0.0043225535 0.0021014144 0.00069521856 0.00023857059 0.0069887596 -0.003995095 0.0023740495 -0.0023188887 -0.0057020434 -0.0013520609 -0.0073924963 0.0016909061 0.0030570482 -0.0028863486 0.0001583489 0.00013865797 0.007871942 0.005604052 -0.002272112 -0.0029835876 0.0020084572 0.0007610478 0.0030784342 -0.0049323705 0.0040187133 -0.0018079801 0.0005684075
実績 0.00047892402 -0.0009402313 0.0047258604 0.0039290497 0.005810943 0.0034093927 -0.0011212057 -0.0022109498 -0.004153291 -0.00276329 -0.0016689588 -0.002988751 -0.001225793 0.0065313713 0.008196422 -0.0033590046 0.006945582 -0.0042152503 0.005204597 0.0025149626 -0.0018817085 0.00540593 0.0050267843 0.0055382596 -0.00289429 0.0015857638 0.004933664 8.0660266e-07 -0.0012112843 -0.007411773 -0.0055422727 0.0020269668 -0.00684603 0.0054208734 -0.005243733 -0.00068146497 -0.0046936055 -0.004929379 -0.0037623593 -0.005665052 -0.0023861986 0.0028147656 0.008865129 0.0069498355 0.0013309174 0.006754152 -0.003221921 -0.0015420003 0.0022204425 -0.004131356 0.0020952933 0.006698609 -0.00153534 -0.006551125 0.0022460662 0.007317498 -0.0036011555 0.0018290718 -0.010754369 -0.0020350043 0.0018367848 -0.0044135004 -0.006005668 0.008084102 0.0074454956 0.0036011299 -0.004233432 0.0021469828 -0.008255982 -0.00428594 -0.005912668 0.0024741425 0.00037197265 -0.0020782826 -0.0044490844 0.0014687934 0.00036831302 0.0020274862 -0.0008303518 -0.0006785978 -0.0024115995 -0.0059997197 0.004779568 -0.008509228 -0.0022623232 0.00398941 0.003808892 -0.0012452675 -0.006914152 0.006375416 0.005138544 0.004263848 -0.0005730123 -0.00047463196 0.0025502825 0.0044741947 -0.0048325155 0.005990502 0.0036428587 0.0033612507
ＦＲＢ 0.009421622 0.0013721018 0.0066110305 0.0012409508 0.0043560616 0.007123617 -0.0055021374 0.0061997264 0.0040865596 -0.0018257136 -0.0029629387 0.0037689991 0.000931917 0.0029038873 0.0051295855 -0.005835824 0.00020199381 0.004410879 0.007113521 -0.004087269 -0.00484901 -0.001103022 0.0018546495 0.008690843 0.0026778437 -0.0044749477 -4.9521303e-05 0.0018950973 -0.0046747327 -0.00029208852 0.0027531863 -0.0010320192 -0.0015342579 0.002913351 -0.0043973755 0.0026548712 0.0017414886 -0.0007078041 -0.004122073 -0.011430758 -0.0024362002 -0.0012569642 0.010646775 -0.00037105914 -0.0032615215 0.00045354155 -0.00044332037 -0.001381482 0.0012798822 -0.0055029867 -0.0052357283 -0.0023991356 0.006156274 -0.006683834 -0.003539149 0.0073094554 0.0011780107 -0.0059215846 -0.007247673 9.780125e-05 -0.00015856733 -0.004937423 -0.012718791 0.00943911 -0.0010854562 0.0031134917 -0.0065962197 0.007564724 -0.0038276017 -0.0042554033 -0.0006740029 0.0017157686 0.0016596288 0.0025455218 -0.0037951635 0.009511755 0.0039265985 0.00526712 -0.0069171474 -0.0008620264 -0.0008358993 0.0033681784 0.008501704 -0.008486598 0.0012673964 -0.002679974 0.0058397665 -0.0012439499 -0.0095938295 -0.003060225 -0.0017831951 -0.0025835163 0.0062112287 0.002378944 -0.0032510916 0.008126748 -0.007195768 0.008623426 0.0011149463 0.0012981213
被告 0.00070446375 0.00517865 0.00033266045 0.004790634 -0.0017031136 0.005334976 -0.0035979103 -0.0030399696 -0.0019568172 -0.00021586362 0.0014350362 -0.00052494777 0.0026186972 0.00687602 0.0062927096 0.0029384254 -0.00019987636 0.0043131816 0.0071642185 0.005327238 0.0056851506 -0.0006584051 0.0033651337 0.0073310346 0.0056117736 -0.00058567896 -0.0006822329 0.00047751598 -0.003554111 -0.0070647323 -0.003782035 -0.00023127033 -0.008091587 0.0003034181 -0.00031641682 0.0036121367 -0.0049146838 -0.002568934 0.00037845777 0.00017419813 -0.0017549158 -0.0020703604 0.008899082 0.00043311462 -0.004368859 -0.00034191183 0.0003298079 0.0020888017 -0.0060988725 -0.0040572793 -0.0037214472 0.004672467 0.007871957 -0.0018788582 0.0019261551 0.0064595644 -0.005242985 -0.0050055617 -0.00939515 -0.0013447364 -0.0015894828 -0.004416245 -0.0023605058 -0.00026402134 0.007972309 0.0051183607 0.0007237773 0.00028583972 -0.0033107304 0.0011218741 0.0014753982 0.002377106 -0.0045984685 0.0046894015 0.00030902095 0.007952315 -0.0032611517 0.0014277499 -0.0035113974 -0.00022638869 -0.004436191 -0.0024239626 0.0074572903 -0.00017008181 0.0049789078 0.0022074427 0.005993563 0.0048540873 -0.00503209 -0.002119841 0.0026726946 -0.002669191 -0.0010424677 0.0048266887 -0.0037147743 0.006628847 0.0005374461 0.0087673245 -0.0034638636 0.0066777915
笑顔 0.0024822862 0.0020644264 -0.0019530067 -0.0030932734 0.0051544034 0.00440709 -0.0017224554 -0.0033245706 0.00037874916 -0.0019684657 0.0013869917 0.0044690724 -0.003272211 0.0043240855 0.000348714 0.0008413373 0.0069668223 -0.0018615972 0.004854876 -0.0034707163 0.004996451 0.005476847 0.0012679205 -0.0015232448 0.000634533 0.0014561451 0.003348087 -0.0030020468 -0.0024700367 -0.0030969807 0.0032040514 -0.00436522 0.0014387188 -0.0009005193 -0.0055299345 0.0039543407 0.0038129708 0.0007563627 -0.0058397776 -0.0067859935 -0.003093913 0.0013148108 0.0007349545 -0.0010848332 -0.00090101664 0.0025967327 -0.0014645222 0.0045933165 -0.0012261368 -0.005338164 -0.0033334831 0.0059432443 0.00057044905 -0.0006269217 -0.0033753184 0.008952494 -0.005600442 -0.003871162 -0.00994377 0.0056685274 -0.0024072155 -0.0013595576 -0.0021164254 0.0026802442 -0.001657732 0.005577823 -0.0012707149 0.0031469166 -0.0007524445 0.0015300065 0.0003824212 0.008408399 -8.457877e-05 -0.0009075793 0.00081905024 0.0057447664 -0.0017416571 0.003983359 -0.0073864055 -0.0048647053 0.004044545 -0.0007963678 0.007910513 -0.0071188863 -0.0006983646 0.0037307593 -0.00039447204 0.0022045062 -0.0060590175 0.0034683817 0.005103268 -0.001337165 0.0050345627 0.003887841 0.0019329081 0.0060903504 -0.0022991647 0.009511926 -0.0053167297 -0.0012561138
病院 -0.0018319867 4.5064793e-05 0.001857343 -0.0023115338 0.005986446 0.0035176629 -0.0046108537 -0.0030797846 -0.0021337771 -0.0054546054 -0.003049286 0.000560603 0.0006434856 0.0051501156 -8.858091e-05 0.00097432814 0.004833647 0.0040035187 -0.00090017857 0.0006639384 -0.003878607 -0.003279453 0.0010105752 0.003240814 0.0037527734 -0.00073592423 -0.0020932588 0.0023330324 -0.0037055814 -0.00052713626 -0.005956007 -0.003511265 -0.004636097 0.0068983273 -0.0047771153 -0.0031942923 -0.003888828 -0.0022102052 0.0024227367 -0.0035226627 0.0016865734 -0.0012774616 0.0016185951 0.0039727646 -0.0063099507 0.0048313905 0.0016664179 -0.00017210274 -0.00092561194 -0.0039640963 -0.001714886 0.00079539575 0.003485619 -0.0022151822 0.0025491642 0.0058175777 -0.005238617 0.0031653363 -0.0069210688 -0.004296459 0.00062751054 -0.0010173913 -0.008791343 0.00723926 -0.0022648843 0.0022150537 0.0020208491 0.0018854771 -0.0026135726 -0.005020116 -0.0007620522 0.004924973 -0.0045563253 0.0045360355 0.0012310087 0.006892042 0.004801428 0.00801061 0.00052224123 0.0019980255 0.0037528833 -0.00315487 0.006293685 9.074276e-05 0.0012405574 -0.0041801394 0.0047515607 0.001592319 -0.0007830357 0.0058529903 0.0066029713 -0.0018342553 0.003857659 -0.0005522849 0.004108679 0.004833156 0.000266138 0.003290019 -0.0036267627 0.0009774747
阪神 -0.001628937 0.0008254632 0.0052942815 0.0050169057 -0.0016609963 -0.0008094398 -0.003430173 0.00074534974 -0.0001404595 -0.0033007262 -0.005090153 -0.001348026 -4.1353764e-05 0.0005305367 0.0051771277 0.0003303771 -6.3886837e-06 0.0026520796 0.0010052805 -0.0013821672 0.000310184 -0.0017064313 -0.0041567623 -0.0024097064 -0.0043573664 -0.003994242 -0.0017104733 0.0015024303 -0.0013889718 -0.00522419 -0.004849473 -0.0025286253 -0.004419063 -0.0012492265 -1.9159601e-05 0.0051858034 0.0007954557 0.0005376347 0.0033998603 -0.0009825537 -0.004639399 0.0001539325 -0.0008180262 0.0022362026 0.002272886 -0.0034814607 0.00045389176 0.00018769041 -0.00061185256 -0.0048625665 -0.0035909517 -0.0042802715 0.0059475526 -0.0035110894 0.004587549 0.0065076193 0.00058334466 -0.0017268973 -0.004254175 0.0011221045 0.00052517763 -0.0040864404 -0.005246288 7.406094e-05 0.00396444 6.566156e-05 -0.0011419525 0.005122435 -0.0036080654 7.981088e-05 0.00041888902 0.0055606174 0.0015755874 0.003116411 0.00021465322 0.005020006 0.0024088863 0.0030727948 -0.0055612368 -0.0029850944 -0.002279356 -0.0034736514 0.0043556513 -0.002310815 -0.0008155969 0.0010724544 0.003952114 0.00011232046 -0.0033763086 0.0014450727 0.0038842596 -0.0016612887 -0.0012763641 -0.00054867764 -0.003158873 0.00011036819 -0.0044082715 0.0031332113 0.00322526 -0.00021477632
外務省 0.00040468216 0.0036295836 0.0058495547 0.0035087883 0.0028811046 0.0033284894 -0.0056568785 0.0023982734 -0.0023109042 -0.00010853594 0.0023636245 -0.0028055422 0.005240672 0.00012134084 0.0074853566 0.0029743381 0.0019666231 0.0001735073 0.004881398 -0.0034704392 -0.002968 0.00039909707 0.0047180317 0.0052815354 0.004364232 -0.0052133673 -0.0049710935 0.0028886702 -0.0016602686 0.0012451581 0.0019889737 -0.002991588 -0.004102153 0.0008680011 -0.0044717006 -0.0024287375 0.0029015257 -0.005783325 0.00073164975 -0.007975455 -0.0043838657 0.004638703 0.0070389467 0.0065720747 -0.0016311053 0.0012481915 0.004113983 0.0052121244 -0.0023442486 -0.0012001717 -0.0019277463 0.005245732 -0.0021896185 -0.006843001 0.002014317 0.003183769 -0.0027279763 0.00028709753 -0.0057587293 0.003422615 0.0008890506 -0.0059349034 -0.0052757096 0.0034023675 0.007039752 0.0016712726 -0.0040551475 -0.0033489498 -0.005346053 -9.2827995e-06 0.0006648806 0.0010803186 -0.0011904503 0.002792413 0.0013358453 0.0036620605 0.0003905625 0.003002735 -0.0062383576 -0.004194205 -0.002711799 -0.0048275143 6.2254276e-07 -0.002874376 0.005273365 0.0054283193 -0.00088307034 0.002680162 0.0005320556 -0.00041057568 0.00522066 0.0023037025 0.0048119277 -0.0026039497 -0.0014457917 0.0065688207 -0.0059133335 0.008695329 -0.00477002 0.0006652386
ＥＵ 0.004614392 0.005879653 0.0041987263 -0.0022577855 0.006112498 0.0032918267 0.0016232259 0.00037054787 -0.0036231074 0.0047478494 0.0010265235 -0.0043749125 -0.0002626583 0.0022070417 0.0043780077 -0.0004830265 0.007177481 0.0019293983 -0.00044089332 -0.0018763599 0.0035396055 -0.0041350327 0.0028256585 -0.001997067 0.0035363485 -0.00030024987 -0.0011145119 0.0022288577 -0.0002613005 -0.0029060494 -0.0027168235 -0.00527604 -0.0059225536 0.006249778 0.00096806395 0.001383381 -0.00411483 -0.0012964387 -0.0040578027 -0.0062025217 -0.0023289165 0.006862853 0.0068019796 0.0015288183 0.001178988 0.0045694006 0.0022493796 -0.002244522 -0.0011224643 -0.0030791615 -0.004233241 -0.0043189535 0.005005758 0.00036783775 -0.004702308 -0.0008701067 -0.0018079935 -0.002552769 -0.0046345564 0.0024079776 -0.0015344083 -0.002528826 -0.0069218813 0.0040099425 0.0051506762 -0.001967463 0.002871908 0.0007018196 -0.003726092 0.0032875692 0.0024634427 0.0017647505 0.0010687711 0.0009985412 -0.0044902004 0.0037620533 0.002259263 0.0052407957 0.0011614772 -0.00029643305 -0.0012636329 0.0038465383 0.00097635126 -0.0044642463 0.0032428887 0.0006992242 8.105922e-05 0.00085008476 0.0007769959 0.007018609 0.0025199146 0.004719932 -0.0042115045 -0.0044124215 0.0014453473 -0.0029599944 -0.0035607854 0.004688867 -0.0045156986 -0.0012361122
長崎 -0.00033706377 -0.0022018093 -0.0015004512 0.0020356923 0.0065014074 0.006129017 -0.0022615828 0.0032235265 0.0011534485 0.0037553909 -0.0019057867 0.002412742 -0.002428181 0.007134488 0.005042169 -0.003625451 0.0047615846 0.002896877 0.009408108 0.0039025843 -0.0002735132 0.00014304969 0.00095354463 0.0006747083 -0.00015398735 -0.0021561116 0.0039168755 0.0026397004 0.0020244916 -0.0030479983 -0.005833033 -0.0046513597 -0.008490258 0.002077166 -0.0068402733 0.0031441874 -0.00038550058 -0.0025810858 -0.0016755371 -0.0076676244 0.0035787143 0.007636534 0.0072823945 0.0046942765 -0.0043840264 0.009099026 0.0040319096 0.0047098575 -0.0011102629 -0.0011538308 -0.0025671478 0.0053720507 0.0008863122 -0.0036780771 0.0024140303 0.011290145 -0.004508679 -0.0033410697 -0.004844712 0.00074343313 0.005057669 -0.008194356 -0.008990603 0.0039988705 0.0062084417 0.0022280887 -0.0033774765 0.00035053105 -0.005500079 -0.003910308 -0.00138281 0.004773623 0.004568458 0.0014512609 0.0017814771 0.0035623568 -0.000348075 0.0004911415 -0.006751385 -0.00297089 -0.0016837445 -0.0010479661 0.0069325957 -0.0047830786 0.001897607 0.0026910736 0.004806755 -0.0034609966 -0.0074419575 0.006169508 0.004059117 0.0016403793 0.002453647 -0.0030446094 0.0018395721 0.00084803964 0.0027490878 0.0020392428 -0.0054218913 -4.5237255e-05
ミサイル 0.0072496105 0.0033258956 0.0027427573 0.0006512101 0.007204662 0.0040677986 -0.0022149128 0.0054083704 0.003843884 0.001581 -0.007409113 -0.0041893264 0.0032356787 0.007359849 -0.0007903123 -0.0012307469 0.009395483 -0.0031856527 0.0009705508 -0.0011682775 0.0037511939 0.0012305776 0.0006013484 0.005942438 0.00092310813 -0.0008852176 0.005495443 0.0070125284 0.001767804 -0.007118323 0.003403058 0.0025216455 -0.005745599 0.0033765181 -0.0064536766 -0.004147873 0.0020122982 -0.004876849 -0.004109298 -0.001561506 0.0025137865 0.0045454307 0.010209512 0.0021018856 -0.0025117635 0.0065123835 -0.0024308432 -0.0006627882 -0.0019181212 -0.000462427 0.00151178 0.0066471724 0.0009601645 -0.0045260033 0.0029614582 0.0034816687 -0.005789178 -0.0067616343 -0.0038133692 -0.00044189455 -0.00097362674 -0.00846518 -0.012500685 0.0037150108 0.0015650454 0.001000834 -0.0069240313 0.002315733 0.00019424352 0.0040806825 -8.69118e-05 0.0020106088 0.003907911 -0.0008210542 -0.0038888138 0.007771353 -0.00201643 0.0064068288 -0.0031370858 0.0017914397 0.0052237576 -0.0015923964 0.004702556 -0.0016330236 0.005063035 0.0017671258 -0.0022401402 0.00045324748 -0.0051449807 0.00048165568 0.0018935628 0.001813766 -0.0012252799 0.0039886073 -0.0031397776 0.0010566557 -0.002112679 0.005777687 -0.00026904984 -0.0022402937
国民栄誉賞 -0.0011143013 0.0013363417 -0.00095510425 -0.0006425479 0.0062440066 -0.0015049375 -0.0049091377 -0.0012961869 0.0020477106 0.0005912962 0.002863535 -0.00035975847 -0.0036875058 -0.0013081842 -0.0017720856 -0.00025224205 0.0074223448 -0.004051471 -0.00074823055 0.004634754 -0.0011019685 0.0038059505 0.0016563068 0.00563256 0.0030643619 -0.006898852 -0.0043746866 0.003656905 -0.0036446555 -0.0028398165 0.00090199726 -0.00055111793 -0.004713402 0.003183285 0.0005406126 -0.0028851784 0.0029296107 -0.005300844 -0.0054895505 -0.003839821 6.673632e-05 0.006405785 0.0068887197 -0.0009989345 -0.0035251053 0.005652715 -0.0025307355 0.004487969 -0.0019157557 0.0002381122 -0.00090181525 -0.0010509377 0.005338737 0.0010541251 -0.0030277276 0.0072148126 -0.0074203033 -0.0012828973 -0.0026123768 0.005471815 -0.00091413746 -0.0036507573 -0.008233147 0.004674663 -0.002270282 0.005733243 -0.004521 0.004803714 -0.00042155833 0.001067164 -0.0045010136 0.0020036441 -0.0040190597 -0.0024251647 0.0012528128 0.0051859235 -0.004510679 0.004961679 -0.0010052196 -0.0059060957 -0.0044372617 -0.0053960844 0.007069882 -0.008191336 0.0013439656 -0.0010136642 0.005943928 0.0052909493 -0.005140999 0.0017538933 0.002474567 -0.0034042364 -0.0003518976 -0.0026002661 -0.0018558656 0.0016856608 -0.0021952572 0.009993696 -0.004439494 -0.003684382
容疑者 0.0067830128 0.0030928012 -0.00017727887 -0.0039320653 -6.868161e-05 -0.0016228452 0.0016481862 0.0064656255 0.0042744083 -0.00013193693 0.0029793219 -0.0037466174 0.0047319042 0.0023343007 0.0061845477 0.00048535137 0.0045596245 -0.0019035334 0.0047381907 0.0045050224 0.003409822 -0.00491857 0.003182511 0.004954414 0.005154116 -0.005132841 -0.0020152896 0.005762197 0.000999539 -0.00039344095 0.0016213646 -0.0012408292 -0.0035306052 0.005850902 -0.0050175576 0.00091613614 -0.0016554943 -0.0010953363 -0.0040032747 -0.0019233986 -0.00065176544 0.004711345 0.0070559536 -0.0021677392 -0.002862945 0.0024663825 -0.0014261096 -0.0016841897 -0.0031080425 -0.0042351657 -0.002202082 0.005479533 0.0020742295 0.0027308383 0.0014473927 0.009152264 -0.0053539313 -0.005058643 -0.0024788638 0.0012061398 -0.0018065128 0.00051298115 -0.0070351833 0.0058952714 0.00537578 -0.002733423 -0.0044876663 0.0018935865 -0.0028805227 -0.001017051 -0.002629665 0.0038006 0.0042023268 0.0027718728 0.0038151236 0.0022645763 0.003637073 -0.0011295113 -0.007553125 -0.006224227 -0.0043103974 -0.0010797842 -0.0010748268 -0.007498211 -0.0009595898 0.0015415007 0.00283698 0.0010927614 -0.0021388184 0.0074456553 0.0012787532 0.0059111477 0.0026192167 4.4312652e-05 -0.0011807308 0.0050804256 0.0025219247 0.009414824 -0.003635049 0.0031047682
思い 0.0074887965 -0.0022935686 0.003391318 -0.001935579 8.4435116e-05 -0.0018674495 -0.0038706814 0.0041803564 -0.0023963382 0.0036234902 -0.004458638 -0.00048088282 -0.0024358365 -0.0010879419 0.0044563017 -0.004849264 0.0054751504 0.0005475386 0.002521233 0.00045494115 0.0011591858 0.0018706679 0.00056304864 0.0051516453 -0.00096962694 -0.0006537737 0.0010283771 0.0006511909 0.0019384945 -0.0006123788 -0.0006514555 -0.005472565 -0.00082378584 0.0029048384 -0.0048639136 0.0042108884 -0.0057759155 -0.0026295797 0.0026353404 -0.00035058713 0.0027842275 0.0014085368 0.0011142415 -0.0024347105 -0.0018297426 0.003559088 -0.0033111607 0.0009136867 0.0030507413 0.0023901917 -0.0022408632 0.0005851655 0.006508422 -0.0048797145 0.003411522 0.004237163 0.0001496465 -0.003234329 -0.0103407055 0.0018064384 0.0025243068 -0.0038080101 -0.011474709 0.007901154 -0.0011179191 -0.0005486137 -0.0018678264 0.0062038326 -0.0049793394 -0.0048599946 0.0010151389 0.0045737694 0.0024049168 -0.00041400426 0.0036004751 0.008243619 -0.0025096927 0.0052685514 -0.008288304 -0.0021404475 -8.1827515e-05 -0.0021320593 -0.0007246483 -0.007892767 0.0072861486 0.0015742348 -0.0012693092 0.00076234783 -0.007078115 0.0047412263 0.0032841421 -6.1095816e-05 0.0017176341 0.0030271139 0.00434582 0.0048712427 0.0035865093 0.0057541514 0.0024700658 0.006266978
福岡 0.0048152185 0.0029050633 -3.1160544e-05 -0.0032179689 0.004284101 0.006054694 -0.0018279789 0.004877279 0.0014749857 0.0010492121 -0.0010627531 0.00360641 0.0032184443 0.001144096 0.004725325 -0.0026451855 0.0011982962 0.0045505255 0.0070274803 -0.001987092 0.005336415 -0.0025255228 0.0021582507 0.004186964 0.004701775 -0.0055011287 8.084029e-05 0.0052686594 0.0013176526 -0.0063538784 0.0028608688 -0.0020472775 -0.006254515 -0.00033302273 -0.0012355712 0.00052873266 0.0031460128 -0.003508669 -0.00056136237 -0.007244106 0.0048066033 0.0051095136 0.0026384774 0.00567303 6.207807e-05 0.0035175248 -0.0027098833 -0.0014475639 -0.004630958 -0.0044523897 -0.0006718254 0.0018308504 0.004685457 -0.0013015718 -0.0012728114 0.0031788526 -0.0036090836 -3.481785e-05 -0.008822095 0.0054911505 0.005603687 -0.0010748904 -0.008238297 0.002226384 -0.0007593905 -0.00037738602 -0.00567553 0.0033709058 0.0004906362 -0.003997625 -0.003917798 0.006549433 -0.0029348147 0.0005473368 -0.0043870914 0.0025823324 0.00075622794 0.004605604 0.00083452027 -0.003366138 -0.0024354737 -0.0042980504 0.007325596 -0.0005540243 0.0028640297 -0.0025948153 -0.00045849517 0.0008511669 -0.00733976 -0.0008754552 0.0069614253 0.0021630556 -0.0020031105 0.003769317 -0.0006805828 -0.0008863111 0.0017929408 0.0048024273 -0.002090648 0.0012772139
更新 0.0035810068 0.0039990335 0.004717707 -0.00047977243 -0.0003356076 0.0026915912 -0.0043484205 -7.1522685e-05 -0.003544101 -0.0001460645 0.003184707 -0.0020098342 0.0036473249 0.0042506056 -0.0013475384 -0.004990806 0.0015879327 0.0033334848 -0.0008540541 0.0019205374 -0.004457995 -0.0029551398 -0.001546615 0.00036992322 -0.0041718627 0.0021333743 0.0011604364 0.0047440277 0.0029084003 -0.004196608 -0.002088318 0.0015677983 -0.004327408 0.003271481 -0.00605691 -0.00029495748 -0.0058043096 -0.0066307895 -0.0015556669 -0.0064198426 0.0010264661 0.006473407 0.0039002763 0.0042575435 -0.006381868 -0.00079452 -0.0022067262 -0.0015983584 0.0025927692 0.00404373 0.000596921 0.003388696 -0.0023690653 -0.0027867914 -0.00094309903 0.008115281 -0.00140954 -0.0059502292 0.001024222 0.0039581913 0.002340103 0.0005227374 -0.004967441 0.002149373 0.0047994945 0.0005437848 0.0035930779 0.0021159393 -0.0023559646 0.0048040603 0.00033349855 0.0033195931 0.00087464537 0.0048817373 -0.0034355822 0.0040556826 -0.0021882686 0.0045942147 -0.005599552 -0.00023233084 -0.0022932629 0.002063417 -0.0027826107 -0.0016729513 -0.00087374577 -0.0027327177 0.0035692407 0.0021055047 0.00044163634 -0.002372661 0.0028021429 -0.002077686 -0.0025161146 0.002937454 -0.0018269471 0.0048826663 -0.00062140607 -0.0001669122 -0.0023771462 0.00300115
前年同期 -0.0030080967 0.0016669151 -0.00064156204 -0.0007688146 -0.0012919643 0.0045020296 -0.004318013 0.0005422474 0.00035962742 -0.0029458022 0.00083180954 0.0035100596 0.0031286012 0.0021346211 0.0036154825 -0.00064023497 -0.0001512839 -0.0027798994 0.0019586035 0.00029145324 -0.0022745137 -0.00012552306 -0.00010654424 0.0013067964 -0.0041491166 0.00062565727 -0.0009009284 -0.0009735319 -0.0039812485 -0.0043373285 -0.0008479707 0.0017511192 -0.002014416 0.0051295804 -0.0063119344 0.0006310271 -0.0026496677 0.0021495097 0.0032967161 -0.0025720857 0.0030690632 0.004869308 0.005746302 0.0027582557 -0.0026571208 0.0015497254 -0.0013234677 -0.0005652666 -0.002679907 -0.0034428798 0.0019631726 -0.0018335016 0.004902984 -0.0025253866 -0.0021854294 0.0061554606 -0.006463038 -0.0013126812 -0.004129674 0.002236726 0.0053114835 0.0030189075 -0.0026838528 0.0032321576 -0.0009986659 -0.0032688135 0.00042456208 -0.00024829482 -0.003952411 0.0021315413 -0.0052086404 -0.0020115688 0.0004026564 -0.0018091431 0.003424813 -0.0024591263 0.0031038434 0.0013994459 0.0025317178 0.0011192554 -0.0014061589 -0.0041833236 0.0022001637 -0.00573755 0.0007566665 -0.0048041716 0.0018991512 0.0033412997 0.0015412475 0.0022458015 -0.0016455188 0.0011617849 0.0010076526 -0.002771948 0.00023902388 0.006142486 -0.0018650768 0.0024042851 -7.7600314e-05 -0.0031052767
ワシントン -0.00054666906 0.00041689223 0.005636347 0.0051776525 0.004667518 -0.00024751865 0.0033526905 0.0018927242 0.001461113 0.0015809741 -0.005879749 0.0009079401 0.0013908232 0.003761398 6.2957515e-05 -0.0043028076 0.0022520544 0.0009002372 0.0042595384 -0.0014434735 -0.0020920238 -0.0024320695 0.000695823 0.004412917 -0.00013594865 -0.0017469783 -0.0011933264 0.0022357646 0.0035210946 -0.00015613617 0.0037691118 0.0029096745 -0.00573929 0.004981641 -0.005597562 0.0007898388 -0.003926305 0.00069455977 -0.00046942377 -0.00838142 -0.0022745747 0.0058217286 0.006794442 0.0015736546 -0.0039802874 0.0056912494 -0.0003121646 0.0025968428 -0.0017622266 0.00011003869 0.00087954727 0.005645416 0.0039463174 -0.0035291135 0.0011783637 0.0071750726 0.0023916936 0.0023681107 -0.008188605 -0.0023214957 -0.0025324349 -0.001272787 -0.0077646137 0.0040191095 -0.0016253297 0.0012381201 -0.005315609 0.0021462194 0.00093015825 -0.0001812473 -0.00567154 0.002452348 -0.0004397937 -0.0012923349 -0.0024145925 0.0077160024 0.0044717034 0.0032655946 -0.006828514 -0.0066144634 0.0036579582 -0.0005665784 0.0032755102 -0.004876156 0.001946633 0.0034840524 0.0057830545 -0.0022834337 -0.0044727097 0.0068496326 0.0007989667 0.0030174002 -0.0039482783 -0.001693401 0.00036431756 0.005467649 -0.005569142 0.0074189235 -0.005604457 -0.0036318032
生活 0.0069680507 -0.0029726683 0.0021110289 -0.0036823915 -0.0035189367 0.00011033273 -0.005226248 0.0035410174 -0.0021471472 -0.0054469425 0.0037998243 0.0045871874 -0.0009320039 0.0041148406 0.0016735657 -0.003492969 0.0014562543 -0.004234568 0.002501029 0.0035244992 -0.0017992348 0.0019138526 0.0012811892 0.004935759 0.0037825627 -0.0066160904 0.0013151548 0.0051667197 0.0033498295 0.00040920978 0.0017541086 -0.005300482 -0.0032689418 0.0064481325 -0.002286515 -0.004602908 0.0005783298 -0.0011104553 -0.0043633804 -0.0018444485 -0.0026557597 0.004876986 0.0043819947 0.0014636061 -0.0020855456 0.007489209 -0.0019087226 0.004787347 0.00011037159 0.0027382106 -0.0063407696 0.0011940277 -0.0018931077 -0.006381451 -0.0010470435 -0.0005049249 -0.0013406314 -0.006119477 -0.0011834964 -0.001135287 0.0024039869 -0.0067718117 -0.0036862928 0.0040938067 0.0065401555 -0.00039623183 -0.0055691698 0.0050387476 0.0009396279 -0.00077463395 0.0029449225 0.00239717 -0.0019420788 9.800011e-05 0.0016534484 0.0030872019 0.003553721 0.00726921 -0.0009032901 -0.0039326935 0.0047781654 -0.0034973936 0.0022186725 -0.004702616 0.004698217 -0.0021105418 -0.0015752953 -0.003409876 -0.001705439 0.004311782 0.0018495065 0.005996028 -0.0024184661 -0.0035593368 0.0031848645 0.0043738256 -0.004714575 -0.00028148896 -0.0027413378 -0.0023678928
ＴＷＩＴＴＥＲ 0.0005512771 0.0037652268 -0.0015893428 0.0012013189 0.0032703953 -0.0037013197 -0.0040871385 -0.00095565134 0.0017704867 0.002469934 0.00331711 0.0051981034 0.00094645313 0.0010057995 0.0073350184 0.0025872872 -0.0016466845 -0.0041104923 0.007972688 0.004018178 0.0010381897 0.0011395295 0.0031332038 0.0020663126 0.0007778316 -0.0076036337 -0.0019640771 0.0002235551 -0.004800064 -0.00068816455 -0.005788453 -0.004158996 -0.00016409588 0.0052041267 -0.0074298386 -0.0038807914 0.0017877249 -0.005973423 0.0015637254 -0.008583836 -0.0008755969 0.005294613 0.007335609 0.0049337544 5.8246293e-05 -0.00049050327 -0.0033289741 0.0048177103 -0.0025210963 -0.005055013 -0.0059517194 0.00035701072 0.0039407555 0.0015816612 0.0045331535 0.010258009 0.0012718474 0.0019478846 -0.006503374 0.0047541135 -0.0014365745 -0.0054169428 -0.0044067996 0.0060511716 0.004623554 0.0053040045 0.0022624047 0.005591171 -0.002035857 -0.0023381878 0.000661891 -0.00085210614 0.0010418801 0.0027868676 0.00014888683 0.0020569477 -0.00010813969 0.006559158 -0.004372978 -0.0054245326 -0.0022947812 -0.0038918864 -0.00063738297 -0.006323959 0.0050014183 -0.00422343 0.0037666953 0.0034862778 -0.0062300465 0.0006454976 0.00058335584 0.0031845865 0.0004449916 -0.0040769964 -0.0016357414 0.007335016 0.0030685852 0.0042749946 0.00039904012 -0.0006840854
東京体育館 0.0018341672 -0.0037527753 0.0040189945 0.0016132032 -0.003698018 -0.0032363972 -0.0014309887 0.004297511 -0.0015240421 -0.005114064 -0.00078859134 -0.00071800326 -0.003403405 -0.0042653885 0.005879547 0.0019606948 0.0025942978 -0.0033238253 0.005597779 -0.0022589662 0.00135399 0.0016931415 -0.0047125625 -0.0008836497 -0.00018971643 -0.0009228566 0.0029664538 0.0047221067 -0.0021759437 -0.0030335109 -0.0016286925 -0.003345571 -0.00297001 0.005145381 -0.0032786005 0.0019070362 0.004465017 0.00066873303 -0.003382627 -0.0039124032 0.002913048 0.0045605325 0.0030469657 0.0060409913 -0.0042626555 -0.00059275975 -0.0016666525 -0.00083193847 -0.0046315165 -0.0021004092 -0.005892863 0.0045404574 0.0005179716 0.0038752002 -0.0022295548 0.004141869 0.0003030153 -0.0037324026 -0.00044075222 -0.0019255525 -0.0004401441 -0.0020025691 0.0009021933 -0.00015805445 0.006497093 0.0005243242 -0.0025619075 0.0011772297 -0.0006417519 0.0040541217 -0.0006665865 0.005683208 0.0006932356 0.0020371967 -0.0034705307 -0.00029655284 -0.0015624647 0.0072173225 -0.00077482825 0.00411219 -0.0025538206 -0.0003745816 -0.0010527162 0.0012303203 -0.0035502831 -0.0025371818 0.004196542 0.0029995476 -0.0026139994 0.0032382456 0.0062146396 0.0050626914 0.0036654337 -0.003041809 -0.00021453718 -0.0011182349 0.00064831565 0.0027755206 -0.0024513644 -0.0014045547
接続水域 0.0041228603 0.0008578997 0.0015158333 -0.0010165836 0.00023224951 0.0052162586 -0.006319004 -0.0019910196 -0.0009592139 -0.006151215 -0.0013437857 0.0026571862 -0.0035638798 0.00038038427 0.0048579145 0.004212182 0.0030701295 0.0049963654 0.004630512 0.0054601477 0.0036713895 -0.0051490595 -0.0003476676 0.0051802546 0.0051045604 -0.0066205687 0.002028749 0.0028201283 -0.004925306 -0.004811722 -0.00501459 -0.00090857886 -0.0013133122 0.0011478104 -0.0021461993 -0.00033627285 0.0020862345 -0.007934951 -0.0046209963 -0.0006144563 -0.004550362 0.0066646705 0.004543832 -0.00058767316 -0.00030395118 0.004092076 0.0021830166 0.004797781 -0.00578777 -0.0034632946 0.0015052516 0.005457324 0.006397675 -0.0026691388 0.0021805651 0.0011377536 -0.007341266 0.0023535187 -0.011549439 0.0035483101 -0.0032638488 -0.0021453123 -0.0059964545 0.009148142 -0.0014452446 -0.0022754464 -0.002900745 0.0065227454 -0.004267714 -0.0035759653 -0.00034456942 0.0073710782 0.0024848552 -0.00065933727 -0.0042888233 0.002458031 0.0057421904 0.008429874 -0.0005215437 -0.004091442 0.00060379924 -0.004580057 0.003611692 -0.0029559496 -0.0004397898 -0.0029290747 0.002607797 -0.004143759 -0.007279731 0.0077266046 0.008720609 0.0014781776 -0.0030017481 1.3296561e-05 0.0017355608 -0.0019166969 0.0004901495 0.008516269 0.001471458 -0.0017876958
地震 0.008578185 0.0015476885 0.0047153207 0.003557911 0.006117307 0.003194125 -0.006630309 -0.00084479526 0.004002983 -0.006512129 -0.0069358735 -0.0013578195 -0.0009597351 0.0057392158 0.0019960625 1.546359e-05 0.010484675 0.00350703 0.00313086 0.005185987 0.0039456957 0.002740749 -0.0034705815 0.0047748205 0.0002465585 0.00014603752 0.0026005683 0.00403871 0.0004704565 -0.0033584666 -0.00015713088 -0.005507583 -0.0022915918 0.009359267 -0.001956398 0.0058468357 -0.0043416093 -0.01068337 -0.0068987943 -0.0066929357 0.00426329 0.008029903 0.0013481639 0.0018809753 -0.0008925232 0.00052113144 -0.003297338 0.0034221872 -0.0063243215 0.0014763913 -0.0053462936 0.0010950563 0.00043425342 -0.008171237 0.0010602457 0.011567147 0.0009806363 0.000382848 -0.00879125 0.006143288 0.0022059104 -0.004318178 -0.01589993 0.011307634 0.008838074 0.0023869202 -0.003925829 -0.00042372575 -0.0063465848 0.0026220086 -0.005592342 0.009654443 -0.0043027475 0.0017310835 -0.0045392984 0.010692766 0.0048130797 0.0057310793 -0.006608174 -0.0003652197 -0.0022848502 0.0014424375 0.007174621 -0.0065521887 0.0033789857 -0.003992946 -0.0014923023 0.00029297403 -0.00079109997 0.005808891 6.6208915e-05 -0.0028673173 -0.0035893107 0.0024875004 0.0014359857 0.00335829 0.0031245416 0.0025759614 -0.0009379744 0.0035430589
東福岡 0.006517574 -0.0006384083 0.0054895272 0.0005514818 0.006118891 0.002228736 -0.00036805822 0.0068572736 -0.0019828998 0.0033114864 -0.0026861986 -0.0029702166 0.003249469 -0.00019058233 0.0017714407 -0.0037454448 0.0043548006 -0.0037209028 0.006332424 0.0054723923 0.0035983375 -0.0021564332 -0.003506424 0.0061920937 0.0008365328 -0.0013375977 -0.00422509 0.002882819 0.00071508164 -0.0071050394 -0.002648128 -0.0040088873 -0.0055205175 0.0025523626 0.0005991386 0.0049263034 0.0009869162 -0.0038727643 0.0021783572 -0.010330407 0.00021366336 -0.0018985444 0.009221508 -0.0008101099 -0.0065910504 0.0039873337 4.0060007e-05 0.0013350787 0.0019457536 0.0021508867 0.0004962154 0.001806363 0.00035758174 -0.0056453072 -0.002995715 0.010811509 -0.001641583 -0.0035130628 -0.0015078331 -0.0043853438 -0.0024504336 0.00088269357 -0.0036478708 0.008266013 0.00088148407 -0.0020413804 -0.002032677 0.0060949894 -0.0042948816 0.0035683704 -0.002786444 0.0028656346 -0.0043463698 -0.002125212 -0.0026362904 0.00674154 -0.0032252118 0.0034533944 -0.00727423 -0.0044381144 0.0006901558 -0.00094257534 0.0015633742 -0.009103619 0.0075065987 0.00075234275 0.0042127525 0.0015535678 -0.0064128004 0.005249015 0.0053973338 -0.00011758907 0.003935407 -0.0033883841 0.005947811 0.002973165 -0.0033542723 0.0005570456 -0.0055243513 0.0051734284
西日本新聞 0.0021064722 0.0023109184 0.0017030543 0.0019912682 0.0062989034 -0.00044000553 0.0022282875 0.00027266465 -0.004823332 -0.0025198536 -0.0003095009 -0.0005739729 0.00028664427 0.0052601174 0.0018734221 0.00447199 0.004034145 0.0017237025 0.0052226656 -0.0032155067 -0.003892284 0.0026465622 0.00046080447 0.00020566875 -0.0024247393 0.0012575992 -0.00095696456 -0.0004630895 -0.0018949253 0.001754546 -0.00031689685 -0.0045205173 -0.0007271603 -0.001266926 -0.0004048829 0.0027605547 -0.003845889 0.000426903 -0.00033970768 -0.00613875 0.0045649917 -0.0015918596 0.0053297007 0.006019258 0.0004961749 0.0073780976 -0.0017752367 -0.001128021 0.0016287704 0.00214441 -0.0025057872 0.0022289483 0.0023665477 -0.0040071253 -0.0015947659 0.00716029 -0.006464986 -0.0017027233 -0.0057797274 -0.00023905402 0.00035394242 -0.0070863985 -0.00085278385 -0.0013023275 0.005470294 0.0004604572 -0.0023249686 0.001478052 0.00032226127 0.0032112934 -0.0022403907 0.004559187 -0.0026279674 0.00037280077 0.0011743965 0.0039702565 -0.004347327 0.007818353 -0.0075127035 0.0013791109 -0.0037580212 -0.003452219 0.0059252065 -0.0014903047 0.003039576 0.0039893994 -0.0036569517 0.0018002668 5.2113486e-05 -0.002066869 -0.001623741 -0.0006506401 0.0015297617 -0.0022811473 -0.0003811616 -0.0030588335 -0.0048965598 0.004620816 0.00020189982 -0.00068015745
野口 0.006793524 0.004005626 -0.0010000502 0.0047515486 0.000986237 0.0068272734 -0.0028991664 0.005815188 -0.0012427904 -0.005017189 -0.0056413445 -0.00047234932 -0.0016932352 -0.00031771077 -0.00032067232 -0.0020015058 0.0066846567 0.0015722535 0.0067158616 0.0055443193 -0.00046681415 -0.00020502725 -0.0036048659 0.0007481157 0.0015280825 0.0017051821 0.000642636 0.005066946 -0.0028561288 -0.005124231 -0.0050857835 0.00058771967 -0.0040680063 -0.0005005296 -0.0039334926 0.0038677985 0.0008079526 -0.0077305925 -0.0024181802 -9.9638644e-05 -0.0045555197 0.003093847 -0.0016270237 -0.0003003755 -0.0014736429 0.002418207 -0.0019445057 0.001429826 -0.0061558103 0.0016480066 -0.0032740722 0.0024287952 0.004666891 -0.0010864374 0.004719594 0.008222527 -0.0006719385 -0.0007934902 -0.0067970436 -0.0012119936 -0.0034030434 -0.0047457493 -0.008112599 0.0072085103 0.0059763175 0.002563032 -0.0003992724 0.0043728016 -0.0043769376 -0.0035130498 -0.0022930016 0.003945013 -0.0039257156 -0.0027514533 -0.003911971 0.0012272674 -0.0013373641 0.006158263 0.00013563222 -0.0030368008 -0.003168648 0.0035660157 0.0028171826 0.000127471 0.005367642 0.001430465 0.00097018835 0.00012663713 -0.008276598 0.00676237 0.005077594 0.0026714841 -0.0012748376 -0.0036239184 0.0013743514 0.003257076 -0.0048230533 0.0012262586 -3.801482e-05 0.002998489
本部長 -0.0028123683 0.0057426686 0.0005028053 0.0043683983 0.0014326328 -0.0007600085 0.0013889206 0.006051696 0.00038573355 -0.0008617311 -0.0045064497 0.0017871131 -0.0016484626 0.0060816584 0.006121894 0.0029193712 0.0023259085 -0.0041422015 0.0037084226 -0.0034893362 -0.00072958786 -9.788539e-05 -0.0009102838 0.00065659324 0.0023132858 -0.0060868016 0.0040061884 0.001316001 -0.0002880713 -0.004461176 0.0038934762 0.0030020578 0.0021351743 0.006169022 -0.0048126574 -0.0013384855 0.0029637525 -0.000647443 0.00027319937 -0.0012303821 -0.0009763094 0.0015303739 0.006764008 0.0038521488 -0.000265381 0.0024765446 -0.0032797577 -0.003946746 0.0029029334 -0.002046827 -0.0033469005 -0.0029032994 -0.0007935521 -0.0043321084 -0.0018062488 0.0046025375 -0.0054140296 0.0017774871 -0.00095472956 -0.0039094174 0.005009397 -0.004571869 0.0007199541 0.0044423216 0.0053434274 0.0045511494 0.004221457 0.0003274366 -0.006969883 -0.0018207723 0.0034325465 0.0034662397 0.004067654 0.0023469916 -0.0036160448 0.003913702 -0.0046219626 0.0051372084 -0.0021099297 -0.0060160533 -0.00035227928 -0.004420659 -0.0015366769 -0.00555807 0.0029429742 0.0034879907 -0.0026584785 0.005144959 -0.0060095913 0.005255079 0.0051908623 -0.0031970376 0.005735771 0.00080020097 -0.0010566823 0.0011321744 0.0023265372 0.0066026193 -0.0043359753 0.005594035
Ｗ杯 -0.001273999 0.00043640035 0.0064193653 0.001972292 0.0013946191 0.0022566305 -0.002205297 0.005217588 -0.0024529034 0.0034372453 -0.0030178428 -0.0013945842 -0.0015584202 0.0023848258 -0.00087548717 0.0042255195 0.0019350734 -0.0026859683 0.007434533 0.0016392799 0.0049871644 0.005053444 0.004798808 0.0008253989 -0.0034578585 -0.0068370407 -0.0024062754 0.0043466776 -0.0038285959 -0.0021675718 -0.0017146775 0.0032743819 -0.0037862628 0.0014236707 -0.003101833 -0.0025353702 0.002579502 -0.004071022 -0.0033679032 -0.00057622953 -0.003484752 0.0013793304 0.0022625767 0.006187488 -0.006020389 0.0063593932 0.0004539704 0.005718176 -0.004155569 -0.00018315479 -0.0038250445 0.005529333 0.001325563 0.00069250574 -0.00066498877 0.007410644 -0.00575725 -0.00066313747 0.000774445 0.0011428344 0.0025842732 -0.005260568 -0.003163886 0.0021715541 0.0039577503 0.004461158 -0.003087564 -0.0035330076 -0.001078345 -0.003918929 -0.0051538562 -0.00071060285 0.0037939746 -0.0004218465 -0.0043629594 0.0033657085 -0.0035195271 0.0030214987 -0.0055622193 0.00054820516 0.00065438263 -0.004891629 0.0070435377 -0.0012872735 0.0031758775 -0.003153002 -0.0011634358 0.0009036827 -0.001037157 0.0064934283 -0.00095117826 0.0026119964 -0.00091405626 -0.0011413032 0.003083077 -0.002453947 -0.0053257835 0.0013255599 -0.002331052 0.0045182593
大阪桐蔭 0.004533004 0.0038291966 0.0043144114 0.00052165374 -0.0019220309 -0.0009940983 0.0037917 -0.0016398022 -0.004571442 0.002317786 0.0036234919 -0.0021175428 -0.0023052064 0.0006443593 0.0043440666 0.003965579 0.0012920259 0.001069466 -0.0014510514 -0.0027226594 0.0039954954 0.0026847168 0.0024803053 0.0050485316 -0.0013316934 -0.0061160875 -0.0021534187 0.0007736852 -0.0033667039 0.00026851054 0.002133965 0.0005015818 -0.0014594528 9.343383e-06 -0.0034821949 -0.00168044 -0.002493387 -0.0006325471 -0.0014252258 0.0011289852 0.0027740393 0.0044346945 0.0010983018 0.0012144577 0.0026420485 0.0012841951 0.0048996345 8.74396e-05 -0.0039985245 -0.0025968165 -0.0009793892 0.001068841 0.0021628235 -0.0054828827 0.00017789625 0.0050500077 -0.0035593417 -0.006044316 -0.0042112637 -0.004107567 0.0034567919 0.0005496451 -0.0071418514 0.00029254466 0.004696555 0.0032400575 9.388154e-05 0.004448968 -0.00016814153 -0.0034403314 -0.0045753606 0.0045176656 0.0010949619 0.001352246 0.0017853718 0.0021898043 0.005025106 3.675327e-05 -0.0074588633 0.0010408813 -0.0039797183 -0.0056285956 -0.00026804025 -0.006579597 0.0056110187 0.0029234728 0.003703009 0.0025004784 -0.002658098 0.0041644583 -0.0022856167 0.0018923582 0.0002393374 0.0006115407 0.0024466617 0.00030121306 -0.0035724207 -0.00071340933 -0.005164757 0.0050937166
仮想通貨 -0.0009433893 0.002160226 0.0004224233 -0.0037001607 0.006578459 -0.0033329814 -0.0055427775 0.002497135 -0.0007592248 -0.0016186249 -0.0011220404 -0.0029245047 -0.000887461 0.0046006734 0.0029450445 0.0017840747 0.0064826855 -0.0019638003 0.0014912596 0.005323339 -0.0018544352 0.0049646823 -0.0027314834 0.0061538033 0.005198007 0.002686755 0.0040856292 -0.0006821833 0.0038928809 0.0028036805 -0.00089638174 -0.0024706535 -0.0057255654 0.007406092 0.00053518626 0.0011297581 -0.0009000478 -0.007261053 -0.0017475574 -0.0029727337 0.0021263016 0.0039945464 0.0057021105 -0.0008271617 -0.0010825635 0.0032443465 -0.0028146931 0.0033154713 -0.0028089327 0.0027219513 -0.0002006603 0.002807452 0.0042113145 -0.0042316183 0.005694735 0.006852829 -0.0053839115 -0.0050139674 -0.0030890412 0.0049749254 -8.478899e-06 -0.0023233937 -0.005809085 0.006861988 0.005873026 0.0013303855 -0.0029399202 -1.3047594e-06 -0.0064186915 0.00485802 0.003748667 0.006219741 -0.0027634725 -0.0026054801 0.0051310253 0.0013637925 -0.00055517873 0.006698495 -0.0023415491 -0.002183897 0.0051621003 -0.0029182823 0.0058598868 -0.00079308427 -0.00032143964 0.0031172326 0.0024675317 0.005134821 -0.00031842155 0.005524749 0.0067357337 0.0043048686 0.0014131698 0.0029537939 -0.0038915197 -0.0030541876 -0.0055756867 0.008779137 0.0017794139 -0.0045233634
仕事始め -0.0028092999 0.004548977 -0.0030471329 -0.0035531658 -0.0031155036 -0.0035483427 0.0005963366 0.0035789728 0.003380017 -0.0053625423 -0.0014295916 0.0015070256 -0.00083435426 -0.0025710184 0.0057487297 -0.0041125454 0.00078090833 0.005014424 -0.0012232714 0.0007639829 0.0015213077 0.0015264582 0.0038687007 0.0021197593 -0.002972725 -0.0029331776 0.002467892 0.0012655833 0.0047870274 -0.003792014 -0.00020511563 -0.00016791059 0.0008012722 0.004197627 0.0010827883 0.0012936298 -0.0017641899 -0.00019418813 0.0009112848 -0.003703537 -0.0007504289 0.0053181006 0.0046504117 0.0002489003 0.00089440437 0.0058247005 -0.003265502 -0.00051959156 -0.0054371217 0.0023667149 -0.0034640608 -0.00071626436 0.001852664 0.0001205177 -0.0033610328 0.0068700314 -0.0066340654 -0.001495059 -0.001497435 -0.0039348346 0.0054091993 -0.00026447338 -0.009083305 0.004310342 0.000418953 0.0051517943 -0.0025668824 0.001243673 -0.005408161 -0.00093018985 -0.005024412 0.0068602557 -0.005040143 0.0048526255 0.0049487427 0.004472235 0.00037286713 0.0012113887 -0.0053776274 -0.004925562 0.00073633203 -0.0018151212 0.0011079372 0.0002814721 0.00072403636 0.0034363104 0.0036313063 -0.0030451026 -0.0031596231 0.0043631047 0.0031615703 -0.003135479 0.0047743204 -0.0017320602 -0.0028679685 -0.0007287471 0.0015373353 0.002677173 -0.00071398413 0.00031402285
疑い 0.007046907 0.001198211 -0.0024321168 -0.0014576849 0.00010244529 -0.0010510583 -0.0036386258 -0.0018400858 0.0037719407 0.0024699909 -0.00052215793 -0.005355721 0.005689908 0.0053557134 0.0042682425 0.0029265855 0.0016317375 0.000488153 0.0012291487 0.0025378386 0.00070141914 0.00028047984 -0.0016631985 -0.0005537783 -0.0006463785 -0.0043456485 -0.0025248248 0.0037112867 0.003104808 -0.0023601914 -0.0053243153 -0.005191948 -0.0019113162 0.0060209595 -0.0018603076 0.0022937646 -0.005229744 -0.0033253054 0.0015939897 -0.0063621346 0.00083336345 0.00016807899 0.007341669 -0.00024970007 -0.0048201443 0.0037003926 7.413353e-06 0.00024421673 0.002579036 -0.0021468436 0.00067635864 0.004387817 0.0072733155 -0.0050106654 -0.0011267946 0.0029248707 -0.0021496292 -0.0010445497 -0.00033803005 0.00028255407 -0.0035830888 -0.0027327836 -0.0018268392 0.0072041107 -0.0020275388 -0.0013943238 -0.004986507 0.0050284364 -0.0075461343 -0.0038087973 -0.00068729924 -0.0003959365 -0.0012756715 -0.0022130336 0.0019119042 0.0022856502 -0.0024925575 0.0039607007 -0.0013282258 0.0021138154 0.0008510679 -0.003592611 0.0010291829 -0.0059134914 -0.0015550792 0.0038014997 0.0057795504 -0.004012646 -0.0033689847 -0.002225705 -0.0011294857 -0.003058346 0.005169833 0.004072206 0.0031784629 0.0037791107 -0.0054744664 0.0067075808 -0.0047991336 0.0040065385
豪雨 0.003216061 0.0030155233 0.0017972172 -0.00016094443 -0.0033831866 -0.0033949858 -0.0035034544 0.0038701757 0.002869778 0.0028909445 0.0028533572 -0.0030969456 0.0048381635 0.0070578023 0.0049991678 0.0031347806 -0.00026528558 0.002122656 0.0057731904 0.0013820729 0.0023405456 0.00390813 -0.0044922708 0.0018976541 0.0020015615 -0.0009827026 -0.0014577413 -0.0033741451 0.0027240089 0.0026963465 4.5806053e-05 -0.0018405892 -0.0012624498 -0.0006947512 -0.0060035465 -0.00018944086 0.000769706 -0.0038388013 -0.003416333 -0.00496495 -0.002666546 0.0040091695 0.0040502558 -0.0003923664 0.00066100206 0.0029851794 -0.0021639566 0.002170857 0.0019585667 0.0014666583 0.0019175269 0.0016824238 0.0007790177 -0.0030535285 -0.0013193978 0.004854257 -0.0047601224 -0.0041674073 -0.0011886808 0.0037174325 0.0018082182 -0.007330637 -0.0076605687 0.0009842067 0.007408221 -0.0010345693 0.000977359 0.00023396964 -0.0012131457 0.004604271 -0.0053428463 0.0038396458 -0.001016185 -0.0023012122 0.004445961 0.0016388135 0.0040907874 0.004716111 -0.008079308 -0.0038736037 -0.0011686161 -0.004811132 -7.450769e-05 -0.004070216 0.0039733537 -0.00016513508 0.0021802797 0.003455082 -0.00093774195 0.0037645982 -0.0008648603 -0.0031382178 0.0011258232 0.0011951391 -0.0025686468 -0.00021150403 -0.0048699933 0.0066032754 -0.004409089 0.003187579
井山 0.001456837 -0.002697798 7.882948e-05 0.004358408 0.0067153 0.0025329671 -0.0050872285 0.006256364 0.0031206552 -0.004902851 0.002818432 0.0039941827 -0.00030399777 0.00056500756 -0.0014185642 0.0024826599 -0.0012913245 -0.0022860551 0.0017954217 0.0033209766 -0.0003046674 -0.0023141205 -0.0037775747 0.0064182943 0.0028350514 -0.00620713 -0.0049646907 0.0005483289 -0.002206752 -0.0048314007 0.0012542356 0.0016497284 -0.0028242741 0.0036166476 -0.0011107895 -0.0014496716 -0.0008255391 -0.0016662303 -0.0033199461 -0.010649451 -0.0028206862 0.00573444 0.0041604163 0.0017403386 -0.0073474133 0.004727064 -0.0051150345 0.00085583836 -0.0058320807 -0.0035443555 0.0017564949 0.00031731516 0.0010125119 -0.0012924047 -0.003994583 0.0048591928 -0.0038688025 0.0016606452 -0.010919957 0.0058568423 0.00021989582 0.00063683797 -0.0049126865 0.0036148669 0.00084539974 -0.0007777745 0.0024556762 0.004686043 -0.003906866 0.0046171946 0.00052435277 0.0022510986 0.0032014989 0.0019938853 0.0021434922 0.0027418556 -0.0044225054 0.001976285 -0.0005929141 -0.0023768411 -0.002917252 0.0025748857 0.003900685 -0.005110987 0.0038140926 0.004019557 -0.0013503811 -0.00012891507 -0.0072603854 0.0006313357 0.0051708743 0.0010214368 0.00100233 0.0007104775 -0.0015638823 0.0019364526 0.0012318029 0.004549023 -0.0038083566 -0.0027184165
国連 -0.0005787652 -0.002331644 0.004331264 0.0034723647 -0.0032958088 0.0016115373 -0.0013812544 0.0031268746 0.0039850124 0.00037931558 -0.002332061 -0.0053492067 0.001629882 0.00521556 0.0073016984 -0.0023020909 0.0062367246 0.003660523 -0.00080216816 0.005518255 -0.0043826583 0.0009508526 -0.0005383033 0.0033294256 0.0046766964 0.0022010473 -0.0042789886 0.003621231 0.0041766646 -0.002059412 -0.0034758085 -0.0027609123 -0.0021240755 0.0023543793 -0.0011041239 0.004950337 -0.0053715534 0.0005416563 -0.005239328 -0.0014704362 -0.0014930989 0.0051059495 0.0069814534 0.0063471524 -0.001148815 0.007736533 -0.0018284762 -0.0005799397 0.0014591117 -0.00094101427 0.0027988728 0.0032857016 0.0004309065 -0.0052503464 0.00083794247 0.008626018 -0.0004741414 0.0032007897 -0.009824917 0.0043299515 0.0008956446 -0.0032084004 -0.008713822 0.0034945987 -0.00026535257 0.0027830494 -0.005239577 0.000955667 -0.006381369 0.0034632 0.0012252972 0.001122323 -0.0035762899 0.0037967737 -0.0013977583 0.00722049 0.0031986316 0.00048288057 -0.0027159746 -0.0021609315 -0.00027393532 -0.004012392 0.0047892253 -0.005720535 0.0060152127 0.0010173676 0.0045230277 0.0010402174 -0.001409344 -0.0020393957 0.00652948 -0.0013650357 7.187638e-05 -0.00063578546 0.0051998156 -0.0013636645 0.003957141 0.0062146196 0.0031105715 0.0015330235
復活 0.006494377 0.0044432515 0.0029630885 -0.0042982316 -0.0011820269 0.0036860807 -0.003940032 0.004527317 -0.0024462466 -0.00017582938 0.0015463087 0.0029243585 0.0046934616 -0.0011435816 0.0037883623 -0.004161475 0.0011374315 -0.0033493235 -0.002936954 0.005284522 0.0023360206 0.0013387143 -0.0038918618 0.0010590809 -0.0040697968 -0.0008999027 -0.00022347466 -0.001412861 -0.0019911015 -0.00065473764 0.003602726 -0.003330097 -0.004992089 -0.0029347914 -0.006359061 0.00041175654 -0.0032533875 -0.0005995323 -0.0018125863 -0.007777519 -0.00313516 0.0036488639 0.002185497 0.0029104343 -0.003499066 -0.0010474336 -0.004565567 -0.00084847526 0.0024639098 -0.0015199514 -0.0023563714 -0.0021537826 0.0030971752 -0.004946756 0.0003173934 -1.1116187e-05 -0.0017531792 -0.0010925638 -0.0063460376 0.005286095 0.005523067 -0.0066364496 -0.0040832213 -0.00097954 -0.00287342 0.0013218988 -0.0038692043 -3.489357e-05 0.0018549914 -0.0036266441 -0.0042404826 0.0031579903 -0.004204207 0.0022674915 0.0020385298 0.0018605173 -0.0002936045 0.0011662227 0.0018408264 -0.0012525282 0.0041074385 0.0011105989 0.00081926235 -0.0063010147 0.0024877037 -0.004542895 0.0029466162 0.0015418556 0.0023632457 0.0057366206 -0.0030376732 -0.0017402342 -0.0028728098 -0.0025366547 -0.002386106 0.006224912 -0.0016883248 0.0074402113 -0.004576382 0.0045920755
安倍晋三 0.00446602 0.0019705137 0.0010246619 -0.0018009848 -0.0017880743 0.001212243 -0.004387883 0.00046843218 0.0010784569 0.0020849793 -0.0054449467 -0.004609123 -0.004496744 -0.00089082523 0.002713908 0.0008073372 0.001970866 -0.00034527056 -0.0012201201 0.0018531263 0.0027247733 -0.00024175279 -0.0009773932 0.0035303847 0.004700327 -0.0024870478 -0.0025316607 -0.0009994877 0.0010340526 -0.0056442763 -0.0010618174 -0.005650573 0.00039955936 0.0050044497 0.0013947194 -0.0046163495 -0.003551907 -0.000830197 -0.0035994768 -0.0070501813 0.0039478694 -0.00010122364 0.006797697 -0.0012080278 -0.004049861 -0.0019486527 0.004469548 -0.0013303327 -0.002267591 -0.004270743 -0.0010302211 0.002719387 0.005088856 -0.00024620545 0.003805948 0.0016960159 -0.0018324757 0.00062004116 -0.0056098946 0.00012334624 -0.0017853226 -0.0029150853 -0.007861396 0.0016144388 0.0042079226 -0.00082815764 -0.0025072203 0.005967574 -0.002770194 0.00079277623 0.0009980736 0.0062943883 0.0044659087 -0.0007578509 -0.0033832323 0.0007275911 0.0025977234 0.0075874683 -0.0054015866 -0.0007664058 -0.003114756 -0.005223063 0.005465771 -0.0046285456 0.002737786 0.0046112286 -0.0030193378 0.0016203559 -0.00033594083 0.0048138094 0.0017939863 -0.0032617787 0.0014475624 -0.0006271168 0.002569708 -0.0025222201 -0.00024382673 0.0056707924 0.00031550645 0.0022185885
副社長 -0.00085762376 -0.0020986912 0.0026625686 -0.0036908295 0.005948148 0.006957458 -0.0034721459 0.0023179448 0.0018876952 -0.0045238724 0.0029242483 -0.0043997657 -0.0009837009 0.00014218422 0.008454478 0.0035676423 0.0063602836 0.0037021544 0.0041401437 0.0051574497 0.00384911 0.0016837881 0.0008852706 0.0019835245 0.0019076746 -0.004156684 -0.002829682 0.0037976007 -0.0015771252 -0.005899127 -0.0007818001 -0.0056510842 -0.00803937 0.007417262 -0.0034591071 0.0032293506 -0.0033193487 -0.0037749694 -0.0012535002 -0.008775719 0.0033897888 0.0016797624 0.00048549054 0.0019469558 0.001983254 0.008896857 0.001605599 0.005762249 -0.0049004 -0.0039394135 0.0025472525 0.0048403633 0.0040388377 -8.949761e-05 0.00397032 0.0075214193 -0.0020083052 -0.00071524264 -0.0051420215 0.0055804723 0.0011691382 0.0012323222 -0.010248807 7.937076e-05 0.006738791 0.0059106303 -0.0003368003 0.00631951 -0.009100268 -0.0019200571 0.00053995603 0.008249593 -0.0014064295 -0.0026436131 -0.004134246 0.0049573947 0.004949206 0.002325779 -0.0052554957 -0.0046719755 0.0011374584 -0.0008358185 0.0030609148 0.0008629374 -0.0009195721 -0.0016537072 0.0016464937 0.0036297524 -0.008161447 0.003018255 0.007446769 0.005782086 0.004184151 0.001293482 0.0024811667 -0.0014806329 -0.005228502 0.0058078077 -0.002207456 -0.0020567602
期間中 0.0024973806 0.004210191 1.04724295e-05 0.0028651357 0.0031754812 0.0035465506 -0.003999933 0.0057525937 -0.0019728648 0.002977587 -0.0036108051 0.00040337964 0.005564502 -0.0013294488 0.0061198794 0.0034944173 0.004605599 -0.002639337 0.0071848715 0.0035762927 -0.0014612873 0.00049639033 -0.0020927885 0.0061688107 -0.0030006943 0.0010501771 0.002939533 0.0010602631 0.0038546766 0.0023229714 -0.0030580424 -0.0018028417 -0.0035877977 -0.0012214634 -0.0044929064 0.002850846 0.0002951445 -0.0051707136 0.0020582569 -0.0074743694 -0.001261109 2.1826316e-05 0.00054406363 0.0061413557 -0.0020276096 0.0070001 -0.0049301954 0.003003984 -0.0038274385 -0.002168461 0.0030563222 -0.0003840546 0.0014648441 -0.0045539285 0.00092574616 0.0018916484 -0.00072082167 -0.0050418326 -0.0075908164 -0.0044248505 0.000617636 -0.0010467548 -0.008995647 0.0032897226 0.0027848736 0.0027692502 -0.002841887 0.003377491 -0.006474213 0.0017903041 -0.005255581 0.0016861383 -0.0023890333 -0.0010989975 0.0043252762 0.0033396506 0.0022813317 0.0014856253 0.001789898 -0.003063244 0.0027248948 0.002827044 0.0034612287 -0.002600124 0.00048838963 0.002232217 -0.0033032289 -0.00251723 0.00025166417 -0.0019426561 0.0064870007 -0.00032969727 0.0023537036 -0.002389759 0.004736689 0.004863628 0.0032668735 0.006232356 -0.0016260833 0.004744517
準優勝 -0.0011847131 0.0024255402 0.0045507737 0.0012644115 0.0008674162 -0.0035071743 -0.0026760604 0.0016879467 0.00012202965 0.0005887194 0.0019219168 0.002479051 0.0039651734 0.005100558 -0.0011372416 -0.004990501 -0.00079907745 0.0020791148 0.0010419444 -3.8490598e-05 0.0057201013 0.0001286875 0.0045788074 0.0010556681 0.0009765791 -0.0012615962 -0.0037685563 0.0035643033 0.0027273896 -0.006011552 -0.000109695946 -0.005538296 -0.004564441 0.00016142239 -0.0030545208 -0.0014416666 -0.0014318485 -0.00054633827 -0.0028132033 -0.007777959 0.0014325249 0.0056337 0.00255403 0.00464543 0.0013771638 0.0037372014 -0.0002775165 0.0014796967 0.0017395288 -0.003909199 -0.004963229 0.00012029961 0.004069983 -0.005002238 0.0010809683 0.009970904 -0.0014149527 -0.0031707108 -0.00013926692 0.0053828047 0.0038104157 -0.001923462 -0.010448256 0.0024616215 0.0060969214 0.00077096676 -0.0047887005 -0.0035830645 -0.0016699436 0.0037805284 -0.0013860292 0.0035987364 0.0007700124 0.005550148 0.004290841 0.0050807237 5.4033542e-05 0.0033214577 0.0009645526 -0.0026116814 -0.00053468434 -0.0056688148 0.0071296403 -0.0027048949 0.0037707156 0.00092003983 8.9354304e-05 -0.0027596224 -0.0024891873 0.0029126466 0.0022414653 -0.00094483147 -0.0014937464 0.001536388 -0.0016425734 0.00019380797 3.970924e-05 0.004408776 0.0027239332 -1.17099335e-05
